{"learner":{"attributes":{"scikit_learn":"{\"_estimator_type\": \"regressor\"}"},"feature_names":["Year","Month","Day","Hour","T2M","RH2M","PRECTOTCORR","LAT","LONG"],"feature_types":["int","int","int","int","float","float","float","float","float"],"gradient_booster":{"model":{"gbtree_model_param":{"num_parallel_tree":"1","num_trees":"100"},"iteration_indptr":[0,1,2,3,4,5,6,7,8,9,10,11,12,13,14,15,16,17,18,19,20,21,22,23,24,25,26,27,28,29,30,31,32,33,34,35,36,37,38,39,40,41,42,43,44,45,46,47,48,49,50,51,52,53,54,55,56,57,58,59,60,61,62,63,64,65,66,67,68,69,70,71,72,73,74,75,76,77,78,79,80,81,82,83,84,85,86,87,88,89,90,91,92,93,94,95,96,97,98,99,100],"tree_info":[0,0,0,0,0,0,0,0,0,0,0,0,0,0,0,0,0,0,0,0,0,0,0,0,0,0,0,0,0,0,0,0,0,0,0,0,0,0,0,0,0,0,0,0,0,0,0,0,0,0,0,0,0,0,0,0,0,0,0,0,0,0,0,0,0,0,0,0,0,0,0,0,0,0,0,0,0,0,0,0,0,0,0,0,0,0,0,0,0,0,0,0,0,0,0,0,0,0,0,0],"trees":[{"base_weights":[-2.4532973E-8,1.2739272E0,-8.9519244E-1,2.629601E0,8.839356E-1,-2.7252939E0,-3.4451976E-1,3.3567638E0,1.6786677E0,1.0391749E0,-2.3011856E0,-2.217344E0,-3.1181426E0,3.0797793E-2,-1.0763214E0,3.5671268E0,2.1996272E0,1.1832099E0,2.7933598E0,5.906956E-1,1.9560392E0,-1.5099221E0,-2.86357E0,-2.6257603E0,-1.4934431E0,-2.8856103E0,-3.2510118E0,-1.2317063E0,1.7388064E-1,-1.7455813E0,-7.183692E-1,3.9231827E0,3.166484E0,1.1703263E-2,2.6495562E0,1.9052618E0,8.221446E-1,3.0343342E0,2.2508585E0,1.1771141E0,7.869255E-2,2.6013107E0,8.258346E-1,-1.086165E0,-1.8257325E0,-2.1433768E0,-3.1864862E0,-2.1876101E0,-2.835499E0,-8.365423E-1,-2.1340454E0,-2.7183285E0,-3.020714E0,-2.9268615E0,-3.3034487E0,-1.7554274E0,-4.8128352E-1,1.0598493E0,-1.152747E-1,-2.2391598E0,-1.4837811E0,-1.0956366E0,-2.1374787E-1,9.8483825E-1,1.330607E0,9.8524034E-1,7.9101485E-1,2.8514656E-1,-2.0843498E-1,9.033342E-1,5.423097E-1,-4.893734E-1,5.7883096E-1,4.2508543E-2,4.5076573E-1,9.435806E-1,8.2693344E-1,7.385029E-1,7.4247815E-2,-1.2466021E-2,4.2066574E-1,-4.8489947E-2,3.372604E-1,9.593577E-1,5.3723675E-1,3.4927678E-1,-1.7227639E-2,-4.78307E-1,-1.9720818E-1,-4.812955E-1,-6.7640233E-1,-6.029487E-1,-7.1366054E-1,-5.8279234E-1,-9.8827446E-1,-7.515043E-1,-5.2645093E-1,-7.5717586E-1,-9.227835E-1,-1.2975435E-1,-5.320046E-1,-5.0672746E-1,-7.52406E-1,-8.586522E-1,-7.351074E-1,-7.914763E-1,-9.29636E-1,-9.135033E-1,-8.163599E-1,-9.351029E-1,-1.0061066E0,-3.2205972E-1,-8.309848E-1,5.499469E-2,-4.2434636E-1,3.4487534E-1,-2.2826844E-1,-1.5115048E-1,1.822133E-1,-7.480638E-1,-5.706486E-1,-5.34067E-1,-3.3818522E-1,-1.16739385E-1,-3.928322E-1,3.161317E-1,-1.2261891E-1],"categories":[],"categories_nodes":[],"categories_segments":[],"categories_sizes":[],"default_left":[0,0,0,0,0,0,0,0,0,0,0,0,0,0,0,0,0,0,0,0,0,0,0,0,0,0,0,0,0,0,0,0,0,0,0,0,0,0,0,0,0,0,0,0,0,0,0,0,0,0,0,0,0,0,0,0,0,0,0,0,0,0,0,0,0,0,0,0,0,0,0,0,0,0,0,0,0,0,0,0,0,0,0,0,0,0,0,0,0,0,0,0,0,0,0,0,0,0,0,0,0,0,0,0,0,0,0,0,0,0,0,0,0,0,0,0,0,0,0,0,0,0,0,0,0,0,0],"id":0,"left_children":[1,3,5,7,9,11,13,15,17,19,21,23,25,27,29,31,33,35,37,39,41,43,45,47,49,51,53,55,57,59,61,63,65,67,69,71,73,75,77,79,81,83,85,87,89,91,93,95,97,99,101,103,105,107,109,111,113,115,117,119,121,123,125,-1,-1,-1,-1,-1,-1,-1,-1,-1,-1,-1,-1,-1,-1,-1,-1,-1,-1,-1,-1,-1,-1,-1,-1,-1,-1,-1,-1,-1,-1,-1,-1,-1,-1,-1,-1,-1,-1,-1,-1,-1,-1,-1,-1,-1,-1,-1,-1,-1,-1,-1,-1,-1,-1,-1,-1,-1,-1,-1,-1,-1,-1,-1,-1],"loss_changes":[2.4312652E6,4.6517075E5,1.26183E6,1.35913E5,3.3785494E5,5.7783E4,2.6435175E5,2.7105375E4,4.7038484E4,2.679032E5,1.4126453E4,3.7338312E4,5.036125E3,1.1492399E5,7.816409E4,1.3432375E4,1.6869805E4,1.5372117E4,3.4194375E3,1.3136417E5,1.5607231E5,1.7638633E3,4.3097656E3,7.4140625E3,1.917E4,1.3340625E3,1.7565E3,2.5451414E4,1.463913E5,1.468875E4,4.04711E4,1.63511875E4,2.7557188E3,1.9399716E3,4.321008E3,1.6837031E3,1.8201045E4,5.5071875E2,3.4056055E3,5.594625E4,5.869036E4,6.58635E4,2.324959E4,1.2273374E3,7.1428906E2,1.7602148E2,1.7110469E3,3.5868516E3,4.083E3,8.513495E3,3.8338125E3,1.0161875E3,9.7259375E2,3.4351562E2,8.2725E2,2.6383562E4,1.6510783E4,2.2974219E4,1.2097335E5,3.3732812E3,7.8496562E3,1.8373969E4,2.247664E4,0E0,0E0,0E0,0E0,0E0,0E0,0E0,0E0,0E0,0E0,0E0,0E0,0E0,0E0,0E0,0E0,0E0,0E0,0E0,0E0,0E0,0E0,0E0,0E0,0E0,0E0,0E0,0E0,0E0,0E0,0E0,0E0,0E0,0E0,0E0,0E0,0E0,0E0,0E0,0E0,0E0,0E0,0E0,0E0,0E0,0E0,0E0,0E0,0E0,0E0,0E0,0E0,0E0,0E0,0E0,0E0,0E0,0E0,0E0,0E0,0E0,0E0,0E0,0E0],"parents":[2147483647,0,0,1,1,2,2,3,3,4,4,5,5,6,6,7,7,8,8,9,9,10,10,11,11,12,12,13,13,14,14,15,15,16,16,17,17,18,18,19,19,20,20,21,21,22,22,23,23,24,24,25,25,26,26,27,27,28,28,29,29,30,30,31,31,32,32,33,33,34,34,35,35,36,36,37,37,38,38,39,39,40,40,41,41,42,42,43,43,44,44,45,45,46,46,47,47,48,48,49,49,50,50,51,51,52,52,53,53,54,54,55,55,56,56,57,57,58,58,59,59,60,60,61,61,62,62],"right_children":[2,4,6,8,10,12,14,16,18,20,22,24,26,28,30,32,34,36,38,40,42,44,46,48,50,52,54,56,58,60,62,64,66,68,70,72,74,76,78,80,82,84,86,88,90,92,94,96,98,100,102,104,106,108,110,112,114,116,118,120,122,124,126,-1,-1,-1,-1,-1,-1,-1,-1,-1,-1,-1,-1,-1,-1,-1,-1,-1,-1,-1,-1,-1,-1,-1,-1,-1,-1,-1,-1,-1,-1,-1,-1,-1,-1,-1,-1,-1,-1,-1,-1,-1,-1,-1,-1,-1,-1,-1,-1,-1,-1,-1,-1,-1,-1,-1,-1,-1,-1,-1,-1,-1,-1,-1,-1],"split_conditions":[-4.6625E0,1.049095E2,2.673E1,1.8E1,9.262E1,9.375E1,2.1E1,-5.6625E0,2.7E1,1.289095E2,9.562E1,1.224095E2,9.694E1,7.331E1,7.806E1,1E1,2.731E1,2.1E1,-6.6625E0,1.5E1,2E1,9.375E1,1.379095E2,8E0,1.324095E2,7E0,-3.1625E0,1.174095E2,4E-2,7.369E1,2.842E1,5E0,-6.6625E0,-5.1625E0,1.6E-1,2.468E1,2.4E1,1.019095E2,1.039095E2,7.331E1,2.8E1,-7.6625E0,-6.6625E0,2.51E1,-6.6625E0,2E1,-7.6625E0,2.566E1,1.104095E2,1.8E1,-3.6625E0,2.468E1,-3.1625E0,1.8E0,1.099095E2,1.094095E2,1E-2,1E1,2.873E1,1.174095E2,2.88E1,-3.1625E0,-3.1625E0,9.8483825E-1,1.330607E0,9.8524034E-1,7.9101485E-1,2.8514656E-1,-2.0843498E-1,9.033342E-1,5.423097E-1,-4.893734E-1,5.7883096E-1,4.2508543E-2,4.5076573E-1,9.435806E-1,8.2693344E-1,7.385029E-1,7.4247815E-2,-1.2466021E-2,4.2066574E-1,-4.8489947E-2,3.372604E-1,9.593577E-1,5.3723675E-1,3.4927678E-1,-1.7227639E-2,-4.78307E-1,-1.9720818E-1,-4.812955E-1,-6.7640233E-1,-6.029487E-1,-7.1366054E-1,-5.8279234E-1,-9.8827446E-1,-7.515043E-1,-5.2645093E-1,-7.5717586E-1,-9.227835E-1,-1.2975435E-1,-5.320046E-1,-5.0672746E-1,-7.52406E-1,-8.586522E-1,-7.351074E-1,-7.914763E-1,-9.29636E-1,-9.135033E-1,-8.163599E-1,-9.351029E-1,-1.0061066E0,-3.2205972E-1,-8.309848E-1,5.499469E-2,-4.2434636E-1,3.4487534E-1,-2.2826844E-1,-1.5115048E-1,1.822133E-1,-7.480638E-1,-5.706486E-1,-5.34067E-1,-3.3818522E-1,-1.16739385E-1,-3.928322E-1,3.161317E-1,-1.2261891E-1],"split_indices":[7,8,4,2,5,5,2,7,2,8,5,8,5,5,5,2,4,2,7,2,2,5,8,3,8,3,7,8,6,5,4,2,7,7,6,4,2,8,8,5,2,7,7,4,7,2,7,4,8,2,7,4,7,6,8,8,6,1,4,8,4,7,7,0,0,0,0,0,0,0,0,0,0,0,0,0,0,0,0,0,0,0,0,0,0,0,0,0,0,0,0,0,0,0,0,0,0,0,0,0,0,0,0,0,0,0,0,0,0,0,0,0,0,0,0,0,0,0,0,0,0,0,0,0,0,0,0],"split_type":[0,0,0,0,0,0,0,0,0,0,0,0,0,0,0,0,0,0,0,0,0,0,0,0,0,0,0,0,0,0,0,0,0,0,0,0,0,0,0,0,0,0,0,0,0,0,0,0,0,0,0,0,0,0,0,0,0,0,0,0,0,0,0,0,0,0,0,0,0,0,0,0,0,0,0,0,0,0,0,0,0,0,0,0,0,0,0,0,0,0,0,0,0,0,0,0,0,0,0,0,0,0,0,0,0,0,0,0,0,0,0,0,0,0,0,0,0,0,0,0,0,0,0,0,0,0,0],"sum_hessian":[2.13192E6,8.7984E5,1.25208E6,1.9656E5,6.8328E5,2.89605E5,9.62475E5,1.11384E5,8.5176E4,6.51526E5,3.1754E4,1.26303E5,1.63302E5,6.36193E5,3.26282E5,9.4248E4,1.7136E4,5.8968E4,2.6208E4,4.37518E5,2.14008E5,1.3194E4,1.856E4,8.0745E4,4.5558E4,5.9389E4,1.03913E5,6.4761E4,5.71432E5,1.13698E5,2.12584E5,4.9896E4,4.4352E4,2.923E3,1.4213E4,1.9656E4,3.9312E4,1.8144E4,8.064E3,2.03938E5,2.3358E5,1.36229E5,7.7779E4,5.636E3,7.558E3,5.748E3,1.2812E4,2.6143E4,5.4602E4,2.2494E4,2.3064E4,2.6544E4,3.2845E4,1.4477E4,8.9436E4,3.8141E4,2.662E4,1.40608E5,4.30824E5,3.9403E4,7.4295E4,1.21641E5,9.0943E4,2.2176E4,2.772E4,3.6288E4,8.064E3,1.255E3,1.668E3,9.941E3,4.272E3,1.33E2,1.9523E4,1.9656E4,1.9656E4,1.296E4,5.184E3,7.296E3,7.68E2,3.1797E4,1.72141E5,1.89924E5,4.3656E4,7.8471E4,5.7758E4,5.6233E4,2.1546E4,2.578E3,3.058E3,4.988E3,2.57E3,3.674E3,2.074E3,1.023E3,1.1789E4,1.5079E4,1.1064E4,2.3788E4,3.0814E4,1.5717E4,6.777E3,1.0535E4,1.2529E4,1.7266E4,9.278E3,5.574E3,2.7271E4,9.186E3,5.291E3,1.8998E4,7.0438E4,2.2811E4,1.533E4,1.5548E4,1.1072E4,1.34004E5,6.604E3,2.80177E5,1.50647E5,2.245E4,1.6953E4,4.0562E4,3.3733E4,2.826E4,9.3381E4,1.2124E4,7.8819E4],"tree_param":{"num_deleted":"0","num_feature":"9","num_nodes":"127","size_leaf_vector":"1"}},{"base_weights":[-4.306329E-6,8.4861237E-1,-6.788978E-1,-1.3262844E0,1.0063426E0,-1.8632276E0,-2.5166517E-1,-9.9954844E-1,-1.9375045E0,1.4110322E0,4.113627E-1,-1.434115E0,-2.162715E0,3.947603E-2,-7.368067E-1,-1.3482753E0,-2.8620186E-1,-1.5829232E0,-2.1259916E0,2.1319589E-1,1.6592625E0,9.78884E-2,1.0325428E0,-1.8166454E0,-7.966505E-1,-1.9580076E0,-2.2717423E0,-4.8890886E-1,4.2896116E-1,-1.0919311E0,-3.6632523E-1,-1.6598562E0,-1.1497806E0,9.216813E-2,-1.4953237E0,-2.056771E0,-1.4969938E0,-2.5163138E-1,-2.1686058E0,2.1848912E0,4.1946977E-2,2.2995608E0,1.386066E0,8.7707585E-1,-8.386106E-2,1.9875708E0,7.5966364E-1,-1.341945E0,-2.0207067E0,-3.205258E-1,-1.6697223E0,-1.7680926E0,-2.085292E0,-2.123933E0,-2.3154736E0,1.1791434E0,-6.682192E-1,-4.8683926E-1,6.685821E-1,-1.4660791E0,-8.927637E-1,-6.1189353E-1,2.2483023E-1,-3.877293E-1,-5.8164954E-1,-2.9126552E-1,-4.929036E-1,5.305152E-1,-7.691513E-2,-4.8088005E-1,-2.849807E-1,-3.0197066E-1,-6.335368E-1,-4.193511E-1,-5.318455E-1,-2.7542983E-3,-1.635445E-1,-5.626552E-1,-6.7618E-1,8.694534E-1,5.540223E-1,-6.433521E-2,2.740732E-1,7.7358085E-1,5.207247E-1,3.153351E-1,6.013887E-1,4.077991E-1,1.7948666E-1,-1.19603254E-1,1.0195526E-1,6.517948E-1,4.4554234E-1,-1.4697339E-1,2.7100942E-1,-5.4989624E-1,-3.5086957E-1,-5.2461773E-1,-6.683694E-1,1.20362695E-2,-3.3664578E-1,-3.9468828E-1,-5.271406E-1,-5.6500596E-1,-4.3108585E-1,-6.1427057E-1,-7.7706033E-1,-6.692231E-1,-5.4311776E-1,-7.118692E-1,-6.5904325E-1,-2.330266E-1,4.367379E-1,-4.0593487E-1,-8.778408E-2,-2.8193364E-1,8.971752E-2,6.875601E-2,3.7817135E-1,-4.5920575E-1,-1.9541454E-1,-3.3982038E-1,-1.3817082E-1,5.035105E-2,-2.2432783E-1,3.9762035E-1,3.9718896E-2],"categories":[],"categories_nodes":[],"categories_segments":[],"categories_sizes":[],"default_left":[0,0,0,0,0,0,0,0,0,0,0,0,0,0,0,0,0,0,0,0,0,0,0,0,0,0,0,0,0,0,0,0,0,0,0,0,0,0,0,0,0,0,0,0,0,0,0,0,0,0,0,0,0,0,0,0,0,0,0,0,0,0,0,0,0,0,0,0,0,0,0,0,0,0,0,0,0,0,0,0,0,0,0,0,0,0,0,0,0,0,0,0,0,0,0,0,0,0,0,0,0,0,0,0,0,0,0,0,0,0,0,0,0,0,0,0,0,0,0,0,0,0,0,0,0,0,0],"id":1,"left_children":[1,3,5,7,9,11,13,15,17,19,21,23,25,27,29,31,33,35,37,39,41,43,45,47,49,51,53,55,57,59,61,63,65,67,69,71,73,75,77,79,81,83,85,87,89,91,93,95,97,99,101,103,105,107,109,111,113,115,117,119,121,123,125,-1,-1,-1,-1,-1,-1,-1,-1,-1,-1,-1,-1,-1,-1,-1,-1,-1,-1,-1,-1,-1,-1,-1,-1,-1,-1,-1,-1,-1,-1,-1,-1,-1,-1,-1,-1,-1,-1,-1,-1,-1,-1,-1,-1,-1,-1,-1,-1,-1,-1,-1,-1,-1,-1,-1,-1,-1,-1,-1,-1,-1,-1,-1,-1],"loss_changes":[1.2282435E6,3.2504562E5,5.992879E5,1.2793523E4,2.1271862E5,4.0349E4,1.2294109E5,1.0386473E4,1.48825E3,1.5634338E5,6.964158E4,3.14715E4,4.1228125E3,1.1194796E5,4.294886E4,1.7325312E3,6.272857E3,3.1248047E2,1.1631406E3,3.0476598E4,7.618625E4,3.3661562E4,3.1258328E4,7.8108125E3,2.0121408E4,1.5499375E3,7.749375E2,6.9040625E4,6.87182E4,1.2419078E4,2.3193654E4,1.1159004E3,1.5102539E3,6.102341E3,1.9027344E2,6.645947E1,1.7704785E2,2.3123066E1,3.5202344E2,1.7344062E3,1.8560318E4,2.04885E4,6.3250625E4,6.0434883E3,2.5709738E4,2.4754766E3,1.6752988E4,2.0507695E3,3.1749375E3,9.056229E3,5.2641797E2,9.8190625E2,7.2753125E2,9.188906E2,6.291875E2,1.2124436E4,5.36164E4,2.311766E4,6.4561336E4,3.0466094E3,1.1281086E4,1.1958383E4,4.77005E3,0E0,0E0,0E0,0E0,0E0,0E0,0E0,0E0,0E0,0E0,0E0,0E0,0E0,0E0,0E0,0E0,0E0,0E0,0E0,0E0,0E0,0E0,0E0,0E0,0E0,0E0,0E0,0E0,0E0,0E0,0E0,0E0,0E0,0E0,0E0,0E0,0E0,0E0,0E0,0E0,0E0,0E0,0E0,0E0,0E0,0E0,0E0,0E0,0E0,0E0,0E0,0E0,0E0,0E0,0E0,0E0,0E0,0E0,0E0,0E0,0E0,0E0,0E0,0E0],"parents":[2147483647,0,0,1,1,2,2,3,3,4,4,5,5,6,6,7,7,8,8,9,9,10,10,11,11,12,12,13,13,14,14,15,15,16,16,17,17,18,18,19,19,20,20,21,21,22,22,23,23,24,24,25,25,26,26,27,27,28,28,29,29,30,30,31,31,32,32,33,33,34,34,35,35,36,36,37,37,38,38,39,39,40,40,41,41,42,42,43,43,44,44,45,45,46,46,47,47,48,48,49,49,50,50,51,51,52,52,53,53,54,54,55,55,56,56,57,57,58,58,59,59,60,60,61,61,62,62],"right_children":[2,4,6,8,10,12,14,16,18,20,22,24,26,28,30,32,34,36,38,40,42,44,46,48,50,52,54,56,58,60,62,64,66,68,70,72,74,76,78,80,82,84,86,88,90,92,94,96,98,100,102,104,106,108,110,112,114,116,118,120,122,124,126,-1,-1,-1,-1,-1,-1,-1,-1,-1,-1,-1,-1,-1,-1,-1,-1,-1,-1,-1,-1,-1,-1,-1,-1,-1,-1,-1,-1,-1,-1,-1,-1,-1,-1,-1,-1,-1,-1,-1,-1,-1,-1,-1,-1,-1,-1,-1,-1,-1,-1,-1,-1,-1,-1,-1,-1,-1,-1,-1,-1,-1,-1,-1,-1],"split_conditions":[-4.1625E0,2.566E1,2.711E1,9.531E1,1.9E1,9.188E1,2E1,2.51E1,1.369095E2,7.544E1,2.7E1,1.224095E2,9.6E1,9E0,7.969E1,2.348E1,2.1E1,1.054095E2,-8.1625E0,1.029095E2,1.064095E2,1.029095E2,1.044095E2,8E0,1.324095E2,7E0,1.099095E2,-3.1625E0,1.049095E2,7.494E1,2.859E1,1.149095E2,2E1,-9.6625E0,1.379095E2,1.039095E2,1.179095E2,2E1,9.719E1,1E1,1.249095E2,-6.6625E0,1.304095E2,2.2E1,1.249095E2,1.4E-1,7.588E1,2.52E1,1.099095E2,1.8E1,7E0,2.54E1,2.673E1,1.029095E2,1.174095E2,7.65E1,7.956E1,1.6E1,1.3375E0,1.374095E2,2.887E1,9.99095E1,9.99095E1,-3.877293E-1,-5.8164954E-1,-2.9126552E-1,-4.929036E-1,5.305152E-1,-7.691513E-2,-4.8088005E-1,-2.849807E-1,-3.0197066E-1,-6.335368E-1,-4.193511E-1,-5.318455E-1,-2.7542983E-3,-1.635445E-1,-5.626552E-1,-6.7618E-1,8.694534E-1,5.540223E-1,-6.433521E-2,2.740732E-1,7.7358085E-1,5.207247E-1,3.153351E-1,6.013887E-1,4.077991E-1,1.7948666E-1,-1.19603254E-1,1.0195526E-1,6.517948E-1,4.4554234E-1,-1.4697339E-1,2.7100942E-1,-5.4989624E-1,-3.5086957E-1,-5.2461773E-1,-6.683694E-1,1.20362695E-2,-3.3664578E-1,-3.9468828E-1,-5.271406E-1,-5.6500596E-1,-4.3108585E-1,-6.1427057E-1,-7.7706033E-1,-6.692231E-1,-5.4311776E-1,-7.118692E-1,-6.5904325E-1,-2.330266E-1,4.367379E-1,-4.0593487E-1,-8.778408E-2,-2.8193364E-1,8.971752E-2,6.875601E-2,3.7817135E-1,-4.5920575E-1,-1.9541454E-1,-3.3982038E-1,-1.3817082E-1,5.035105E-2,-2.2432783E-1,3.9762035E-1,3.9718896E-2],"split_indices":[7,4,4,5,2,5,2,4,8,5,2,8,5,2,5,4,2,8,7,8,8,8,8,3,8,3,8,7,8,5,4,8,2,7,8,8,8,2,5,2,8,7,8,2,8,6,5,4,8,2,3,4,4,8,8,5,5,2,7,8,4,8,8,0,0,0,0,0,0,0,0,0,0,0,0,0,0,0,0,0,0,0,0,0,0,0,0,0,0,0,0,0,0,0,0,0,0,0,0,0,0,0,0,0,0,0,0,0,0,0,0,0,0,0,0,0,0,0,0,0,0,0,0,0,0,0,0],"split_type":[0,0,0,0,0,0,0,0,0,0,0,0,0,0,0,0,0,0,0,0,0,0,0,0,0,0,0,0,0,0,0,0,0,0,0,0,0,0,0,0,0,0,0,0,0,0,0,0,0,0,0,0,0,0,0,0,0,0,0,0,0,0,0,0,0,0,0,0,0,0,0,0,0,0,0,0,0,0,0,0,0,0,0,0,0,0,0,0,0,0,0,0,0,0,0,0,0,0,0,0,0,0,0,0,0,0,0,0,0,0,0,0,0,0,0,0,0,0,0,0,0,0,0,0,0,0,0],"sum_hessian":[2.13192E6,9.4752E5,1.1844E6,6.407E4,8.8345E5,3.13989E5,8.70411E5,4.1753E4,2.2317E4,5.25808E5,3.57642E5,1.29066E5,1.84923E5,5.43968E5,3.26443E5,2.8043E4,1.371E4,7.749E3,1.4568E4,9.026E4,4.35548E5,2.37693E5,1.19949E5,8.0661E4,4.8405E4,6.427E4,1.20653E5,2.30825E5,3.13143E5,1.66675E5,1.59768E5,1.091E4,1.7133E4,1.0443E4,3.267E3,1.186E3,6.563E3,3.24E2,1.4244E4,7.212E3,8.3048E4,1.30256E5,3.05292E5,4.4956E4,1.92737E5,2.6655E4,9.3294E4,2.4252E4,5.6409E4,3.1324E4,1.7081E4,2.5796E4,3.8474E4,2.7558E4,9.3095E4,2.2404E4,2.08421E5,6.4942E4,2.48201E5,5.79E4,1.08775E5,1.12878E5,4.689E4,4.711E3,6.199E3,1.2575E4,4.558E3,1.797E3,8.646E3,2.727E3,5.4E2,6E1,1.126E3,4.832E3,1.731E3,1.78E2,1.46E2,3.217E3,1.1027E4,2.317E3,4.895E3,6.4172E4,1.8876E4,8.713E4,4.3126E4,1.98051E5,1.07241E5,1.6467E4,2.8489E4,1.10578E5,8.2159E4,1.9477E4,7.178E3,9.622E3,8.3672E4,6.299E3,1.7953E4,2.4395E4,3.2014E4,2.1605E4,9.719E3,3.385E3,1.3696E4,1.9132E4,6.664E3,3.5804E4,2.67E3,2.0551E4,7.007E3,6.2723E4,3.0372E4,2.776E3,1.9628E4,7.3817E4,1.34604E5,4.1198E4,2.3744E4,1.42462E5,1.05739E5,5.3645E4,4.255E3,6.994E4,3.8835E4,1.675E4,9.6128E4,3.632E3,4.3258E4],"tree_param":{"num_deleted":"0","num_feature":"9","num_nodes":"127","size_leaf_vector":"1"}},{"base_weights":[-7.2308294E-6,5.610674E-1,-5.1007515E-1,-9.208714E-1,6.9689035E-1,-1.2881489E0,-1.7959322E-1,-4.8904905E-1,-1.2264413E0,1.0788288E0,3.666381E-1,-1.4481761E0,-8.2644105E-1,-7.576005E-1,1.9325165E-2,-9.5619994E-1,3.6859017E-2,-1.0363506E0,-1.7217252E0,1.3694309E0,6.296126E-1,-8.997964E-1,4.4810057E-1,-1.2243878E0,-1.6060164E0,3.3225343E-1,-1.1602684E0,-1.8788724E-1,-1.134993E0,-2.1631664E-1,6.948676E-1,5.8117324E-1,-1.0179529E0,4.1430148E-1,-1.0491552E0,-6.4131373E-1,-1.1574557E0,-1.3532472E0,-1.9227903E0,1.5145704E0,7.195049E-1,1.6415514E0,3.821788E-1,1.3877776E0,-9.5670044E-1,9.4952303E-1,2.801237E-1,-1.4015555E0,-9.9244505E-1,-1.7204995E0,-1.2537265E0,7.0359874E-1,-5.6638855E-1,-6.575989E-1,-1.4791663E0,-9.7102696E-1,2.6653373E-1,-1.3256714E0,-8.045596E-1,7.474443E-1,-2.978033E-1,9.1509664E-1,1.9734995E-3,2.8259715E-1,-7.769573E-2,-3.3978158E-1,-2.254435E-1,4.8503134E-2,4.7997156E-1,-6.245223E-1,-2.8815278E-1,3.9723268E-1,-2.365337E-1,-3.0659053E-1,-4.1946027E-1,-4.8722804E-1,-3.5332745E-1,-6.820105E-1,-5.4378265E-1,5.803525E-1,3.7389955E-1,2.5961438E-1,-9.8279315E-1,5.743321E-1,2.7129874E-1,1.4127372E-1,-6.535234E-1,1.1134966E-1,6.0610944E-1,-2.425179E-1,-3.7469804E-1,2.280579E-1,4.028751E-1,1.8327087E-1,1.0839994E-2,-3.7978682E-1,-4.451145E-1,-1.91269E-1,-3.5944083E-1,-4.9875572E-1,-6.5964127E-1,-4.4918683E-1,-3.34491E-1,-2.3936898E-2,4.016376E-1,-1.9884415E-1,9.4184525E-2,-2.7004504E-1,-7.315004E-2,-4.647011E-1,-3.3909822E-1,-3.660204E-1,-8.954066E-2,1.7548221E-1,-1.0268416E-1,-3.1735423E-1,-5.232364E-1,-3.4092066E-1,-1.117209E-1,3.2040086E-1,-6.394252E-2,-1.992804E-1,-5.462334E-4,6.755143E-2,3.9605513E-1,-1.4283709E-1,1.3647266E-1],"categories":[],"categories_nodes":[],"categories_segments":[],"categories_sizes":[],"default_left":[0,0,0,0,0,0,0,0,0,0,0,0,0,0,0,0,0,0,0,0,0,0,0,0,0,0,0,0,0,0,0,0,0,0,0,0,0,0,0,0,0,0,0,0,0,0,0,0,0,0,0,0,0,0,0,0,0,0,0,0,0,0,0,0,0,0,0,0,0,0,0,0,0,0,0,0,0,0,0,0,0,0,0,0,0,0,0,0,0,0,0,0,0,0,0,0,0,0,0,0,0,0,0,0,0,0,0,0,0,0,0,0,0,0,0,0,0,0,0,0,0,0,0,0,0,0,0],"id":2,"left_children":[1,3,5,7,9,11,13,15,17,19,21,23,25,27,29,31,33,35,37,39,41,43,45,47,49,51,53,55,57,59,61,63,65,67,69,71,73,75,77,79,81,83,85,87,89,91,93,95,97,99,101,103,105,107,109,111,113,115,117,119,121,123,125,-1,-1,-1,-1,-1,-1,-1,-1,-1,-1,-1,-1,-1,-1,-1,-1,-1,-1,-1,-1,-1,-1,-1,-1,-1,-1,-1,-1,-1,-1,-1,-1,-1,-1,-1,-1,-1,-1,-1,-1,-1,-1,-1,-1,-1,-1,-1,-1,-1,-1,-1,-1,-1,-1,-1,-1,-1,-1,-1,-1,-1,-1,-1,-1],"loss_changes":[6.101266E5,2.0434162E5,2.8715266E5,1.12461875E4,1.1730203E5,2.4596562E4,9.011911E4,8.677889E3,4.6974688E3,5.6294312E4,5.1452938E4,8.73075E3,3.3146004E4,4.314708E4,9.282583E4,1.7764902E3,6.8118745E3,1.7249766E3,1.0229258E3,2.4698812E4,4.241333E4,3.9249746E3,3.946782E4,4.200578E3,5.8447188E3,6.3965503E3,1.0663E4,2.8458168E4,7.60475E3,3.3952293E4,2.3011836E4,2.1941692E2,5.4859375E2,3.693328E3,3.9031836E2,2.4492112E3,8.990547E2,2.3051172E2,3.4170703E2,2.4108375E4,2.786406E4,6.6937344E3,3.0927312E4,4.699961E2,1.2739355E3,8.756945E3,2.8328521E4,6.4396094E2,3.2319414E3,3.0305938E3,1.2001133E3,6.7490967E3,4.7599805E2,2.59146E3,9.898281E2,4.9177773E3,9.809821E3,8.576406E3,6.334336E3,1.0378502E4,4.3237383E4,3.1981133E4,7.876467E3,0E0,0E0,0E0,0E0,0E0,0E0,0E0,0E0,0E0,0E0,0E0,0E0,0E0,0E0,0E0,0E0,0E0,0E0,0E0,0E0,0E0,0E0,0E0,0E0,0E0,0E0,0E0,0E0,0E0,0E0,0E0,0E0,0E0,0E0,0E0,0E0,0E0,0E0,0E0,0E0,0E0,0E0,0E0,0E0,0E0,0E0,0E0,0E0,0E0,0E0,0E0,0E0,0E0,0E0,0E0,0E0,0E0,0E0,0E0,0E0,0E0,0E0,0E0,0E0],"parents":[2147483647,0,0,1,1,2,2,3,3,4,4,5,5,6,6,7,7,8,8,9,9,10,10,11,11,12,12,13,13,14,14,15,15,16,16,17,17,18,18,19,19,20,20,21,21,22,22,23,23,24,24,25,25,26,26,27,27,28,28,29,29,30,30,31,31,32,32,33,33,34,34,35,35,36,36,37,37,38,38,39,39,40,40,41,41,42,42,43,43,44,44,45,45,46,46,47,47,48,48,49,49,50,50,51,51,52,52,53,53,54,54,55,55,56,56,57,57,58,58,59,59,60,60,61,61,62,62],"right_children":[2,4,6,8,10,12,14,16,18,20,22,24,26,28,30,32,34,36,38,40,42,44,46,48,50,52,54,56,58,60,62,64,66,68,70,72,74,76,78,80,82,84,86,88,90,92,94,96,98,100,102,104,106,108,110,112,114,116,118,120,122,124,126,-1,-1,-1,-1,-1,-1,-1,-1,-1,-1,-1,-1,-1,-1,-1,-1,-1,-1,-1,-1,-1,-1,-1,-1,-1,-1,-1,-1,-1,-1,-1,-1,-1,-1,-1,-1,-1,-1,-1,-1,-1,-1,-1,-1,-1,-1,-1,-1,-1,-1,-1,-1,-1,-1,-1,-1,-1,-1,-1,-1,-1,-1,-1,-1],"split_conditions":[-3.6625E0,2.58E1,2.741E1,-7.1625E0,1.5E1,1.224095E2,7.662E1,2.49E1,1.394095E2,2.744E1,7.038E1,1.099095E2,1.264095E2,2E-2,2.891E1,1.079095E2,2.1E1,-5.6625E0,2.18E1,-6.1625E0,1.039095E2,1.024095E2,1.054095E2,2.598E1,1.174095E2,1.8E1,1.324095E2,7.112E1,1.224095E2,2E-2,2.1E1,2E1,2.42E1,1.389095E2,7.644E1,1.064095E2,9.6E1,7E0,9.562E1,1.094095E2,1.379095E2,1E1,1.379095E2,2.611E1,1E-2,2.6E1,-8.1625E0,-1.625E-1,9.94095E1,2.673E1,2.407E1,9E0,2.9E1,1.299095E2,9E-1,1.224095E2,1.9E1,1.094095E2,2.912E1,1.9E1,8.138E1,1E1,1.294095E2,2.8259715E-1,-7.769573E-2,-3.3978158E-1,-2.254435E-1,4.8503134E-2,4.7997156E-1,-6.245223E-1,-2.8815278E-1,3.9723268E-1,-2.365337E-1,-3.0659053E-1,-4.1946027E-1,-4.8722804E-1,-3.5332745E-1,-6.820105E-1,-5.4378265E-1,5.803525E-1,3.7389955E-1,2.5961438E-1,-9.8279315E-1,5.743321E-1,2.7129874E-1,1.4127372E-1,-6.535234E-1,1.1134966E-1,6.0610944E-1,-2.425179E-1,-3.7469804E-1,2.280579E-1,4.028751E-1,1.8327087E-1,1.0839994E-2,-3.7978682E-1,-4.451145E-1,-1.91269E-1,-3.5944083E-1,-4.9875572E-1,-6.5964127E-1,-4.4918683E-1,-3.34491E-1,-2.3936898E-2,4.016376E-1,-1.9884415E-1,9.4184525E-2,-2.7004504E-1,-7.315004E-2,-4.647011E-1,-3.3909822E-1,-3.660204E-1,-8.954066E-2,1.7548221E-1,-1.0268416E-1,-3.1735423E-1,-5.232364E-1,-3.4092066E-1,-1.117209E-1,3.2040086E-1,-6.394252E-2,-1.992804E-1,-5.462334E-4,6.755143E-2,3.9605513E-1,-1.4283709E-1,1.3647266E-1],"split_indices":[7,4,4,7,2,8,5,4,8,4,5,8,8,6,4,8,2,7,4,7,8,8,8,4,8,2,8,5,8,6,2,2,4,8,5,8,5,3,5,8,8,2,8,4,6,2,7,7,8,4,4,2,2,8,6,8,2,8,4,2,5,2,8,0,0,0,0,0,0,0,0,0,0,0,0,0,0,0,0,0,0,0,0,0,0,0,0,0,0,0,0,0,0,0,0,0,0,0,0,0,0,0,0,0,0,0,0,0,0,0,0,0,0,0,0,0,0,0,0,0,0,0,0,0,0,0,0],"split_type":[0,0,0,0,0,0,0,0,0,0,0,0,0,0,0,0,0,0,0,0,0,0,0,0,0,0,0,0,0,0,0,0,0,0,0,0,0,0,0,0,0,0,0,0,0,0,0,0,0,0,0,0,0,0,0,0,0,0,0,0,0,0,0,0,0,0,0,0,0,0,0,0,0,0,0,0,0,0,0,0,0,0,0,0,0,0,0,0,0,0,0,0,0,0,0,0,0,0,0,0,0,0,0,0,0,0,0,0,0,0,0,0,0,0,0,0,0,0,0,0,0,0,0,0,0,0,0],"sum_hessian":[2.13192E6,1.0152E6,1.11672E6,8.5233E4,9.29967E5,3.32915E5,7.83805E5,3.5321E4,4.9912E4,4.31237E5,4.9873E5,2.47225E5,8.569E4,2.00679E5,5.83126E5,1.8705E4,1.6616E4,3.6071E4,1.3841E4,2.61845E5,1.69392E5,3.0141E4,4.68589E5,1.02255E5,1.4497E5,1.9166E4,6.6524E4,7.9965E4,1.20714E5,4.32324E5,1.50802E5,7.22E2,1.7983E4,1.2331E4,4.285E3,8.465E3,2.7606E4,4.889E3,8.952E3,2.14044E5,4.7801E4,3.328E4,1.36112E5,7.31E2,2.941E4,1.17585E5,3.51004E5,5.797E4,4.4285E4,1.09411E5,3.5559E4,1.3562E4,5.604E3,2.5823E4,4.0701E4,2.9362E4,5.0603E4,7.6542E4,4.4172E4,3.3703E4,3.98621E5,1.14431E5,3.6371E4,5.05E2,2.17E2,1.2571E4,5.412E3,1.0166E4,2.165E3,3.37E2,3.948E3,5.89E2,7.876E3,1.7668E4,9.938E3,1.919E3,2.97E3,2.136E3,6.816E3,8.3428E4,1.30616E5,4.6118E4,1.683E3,2.4288E4,8.992E3,1.31554E5,4.558E3,2.81E2,4.5E2,1.9513E4,9.897E3,7.9383E4,3.8202E4,1.49001E5,2.02003E5,2.1878E4,3.6092E4,1.6251E4,2.8034E4,9.7586E4,1.1825E4,1.2902E4,2.2657E4,6.073E3,7.489E3,5.051E3,5.53E2,1.6279E4,9.544E3,3.3909E4,6.792E3,2.1427E4,7.935E3,3.3226E4,1.7377E4,4.6673E4,2.9869E4,2.4985E4,1.9187E4,2.527E4,8.433E3,1.78104E5,2.20517E5,4.2333E4,7.2098E4,1.7694E4,1.8677E4],"tree_param":{"num_deleted":"0","num_feature":"9","num_nodes":"127","size_leaf_vector":"1"}},{"base_weights":[-8.426713E-6,4.852141E-1,-2.9860705E-1,9.550308E-1,3.241328E-1,-9.295886E-1,-9.391966E-2,1.2490388E0,6.190122E-1,2.4529126E-2,7.236027E-1,-7.1244645E-1,-1.0600554E0,-5.7725847E-1,1.4146E-2,1.3271341E0,4.34582E-1,3.7368926E-1,9.460925E-1,4.6129507E-1,-1.3429604E-1,8.65679E-1,-9.235246E-1,-9.175907E-1,-4.2353982E-1,-9.3135875E-1,-1.1147866E0,-6.541832E-2,-8.53618E-1,-2.1470836E-1,2.982069E-1,1.3491107E0,-1.0242989E0,1.0302474E0,2.1378177E-1,8.6041963E-1,-1.1305458E-1,1.0981247E0,4.8993376E-1,2.236624E-2,1.1928213E0,-2.3329654E-1,4.9269575E-1,1.1438627E0,3.7010947E-1,-1.4257924E-1,-1.3129635E0,-6.244477E-1,-1.0142785E0,-2.712414E-1,-9.5833987E-1,-8.2835555E-1,-1.0228137E0,-1.0620482E0,-1.1687382E0,-8.445639E-1,3.2577828E-1,-6.4918E-1,-1.1101874E0,2.5535652E-1,-4.0281537E-1,4.7442716E-2,6.113224E-1,3.0101743E-1,4.400474E-1,-1.5941598E-1,-4.339736E-1,4.961057E-1,2.1500565E-1,1.0406876E-1,-3.059888E-1,3.1102517E-1,2.0520796E-1,-1.0039558E-1,1.6550691E-1,2.8033888E-1,3.7851483E-1,2.2404316E-1,-3.922178E-1,-1.504712E-1,7.393611E-2,5.926147E-1,2.4044164E-1,-2.2292714E-1,-4.6097282E-2,3.7046486E-1,3.6469407E-2,1.0023811E-1,4.0739834E-1,6.097403E-3,1.9162437E-1,3.903027E-2,-3.112177E-1,2.0338926E-1,-4.5244887E-1,-1.3499433E-1,-2.9934993E-1,-6.656657E-2,-3.0967763E-1,-2.440919E-2,-2.3415995E-1,-5.4595107E-1,-2.4324061E-1,-3.020701E-1,-2.198704E-1,-5.0244826E-1,-3.0053318E-1,-2.9411933E-1,-3.404926E-1,-2.953188E-1,-3.5620496E-1,-7.5336434E-2,-3.1318054E-1,1.9516993E-1,-2.2209529E-2,-3.0984586E-1,-1.6097294E-1,-3.9110994E-1,-2.7457646E-1,1.8906361E-1,-4.2306893E-2,-1.10304385E-1,-5.1497835E-1,2.396863E-1,-4.8726276E-2,3.5093188E-1,1.5130156E-1],"categories":[],"categories_nodes":[],"categories_segments":[],"categories_sizes":[],"default_left":[0,0,0,0,0,0,0,0,0,0,0,0,0,0,0,0,0,0,0,0,0,0,0,0,0,0,0,0,0,0,0,0,0,0,0,0,0,0,0,0,0,0,0,0,0,0,0,0,0,0,0,0,0,0,0,0,0,0,0,0,0,0,0,0,0,0,0,0,0,0,0,0,0,0,0,0,0,0,0,0,0,0,0,0,0,0,0,0,0,0,0,0,0,0,0,0,0,0,0,0,0,0,0,0,0,0,0,0,0,0,0,0,0,0,0,0,0,0,0,0,0,0,0,0,0,0,0],"id":3,"left_children":[1,3,5,7,9,11,13,15,17,19,21,23,25,27,29,31,33,35,37,39,41,43,45,47,49,51,53,55,57,59,61,63,65,67,69,71,73,75,77,79,81,83,85,87,89,91,93,95,97,99,101,103,105,107,109,111,113,115,117,119,121,123,125,-1,-1,-1,-1,-1,-1,-1,-1,-1,-1,-1,-1,-1,-1,-1,-1,-1,-1,-1,-1,-1,-1,-1,-1,-1,-1,-1,-1,-1,-1,-1,-1,-1,-1,-1,-1,-1,-1,-1,-1,-1,-1,-1,-1,-1,-1,-1,-1,-1,-1,-1,-1,-1,-1,-1,-1,-1,-1,-1,-1,-1,-1,-1,-1],"loss_changes":[3.0888734E5,6.1462953E4,1.7045228E5,2.048486E4,7.2384164E4,9.157156E3,5.204963E4,7.0337188E3,7.764418E3,2.3974203E4,6.0658438E4,7.1905977E3,1.4212969E3,2.5756633E4,5.2944023E4,5.2163594E3,1.2726598E3,1.3100674E4,2.8756484E3,2.9591762E4,1.5731831E4,3.2895438E4,6.2597285E3,2.010332E3,4.1033154E3,5.6679297E2,4.01875E2,1.9460174E4,6.2014844E3,3.9881926E4,2.853182E4,4.067375E3,1.9384863E2,5.1040308E2,1.1601373E3,8.5927344E2,4.0730356E3,8.316133E2,4.7882534E3,6.7629233E3,1.0582883E4,8.886333E3,9.519634E3,2.6498578E4,8.0613926E3,1.6715194E3,5.3384414E3,1.1460728E3,7.59875E2,3.7922417E3,1.4178887E3,4.823418E2,4.360586E2,4.2554688E2,2.390625E2,2.524705E3,5.5194736E3,2.8423828E3,1.9767578E3,1.9153887E4,1.4868395E4,3.1824008E4,9.654172E3,0E0,0E0,0E0,0E0,0E0,0E0,0E0,0E0,0E0,0E0,0E0,0E0,0E0,0E0,0E0,0E0,0E0,0E0,0E0,0E0,0E0,0E0,0E0,0E0,0E0,0E0,0E0,0E0,0E0,0E0,0E0,0E0,0E0,0E0,0E0,0E0,0E0,0E0,0E0,0E0,0E0,0E0,0E0,0E0,0E0,0E0,0E0,0E0,0E0,0E0,0E0,0E0,0E0,0E0,0E0,0E0,0E0,0E0,0E0,0E0,0E0,0E0,0E0,0E0],"parents":[2147483647,0,0,1,1,2,2,3,3,4,4,5,5,6,6,7,7,8,8,9,9,10,10,11,11,12,12,13,13,14,14,15,15,16,16,17,17,18,18,19,19,20,20,21,21,22,22,23,23,24,24,25,25,26,26,27,27,28,28,29,29,30,30,31,31,32,32,33,33,34,34,35,35,36,36,37,37,38,38,39,39,40,40,41,41,42,42,43,43,44,44,45,45,46,46,47,47,48,48,49,49,50,50,51,51,52,52,53,53,54,54,55,55,56,56,57,57,58,58,59,59,60,60,61,61,62,62],"right_children":[2,4,6,8,10,12,14,16,18,20,22,24,26,28,30,32,34,36,38,40,42,44,46,48,50,52,54,56,58,60,62,64,66,68,70,72,74,76,78,80,82,84,86,88,90,92,94,96,98,100,102,104,106,108,110,112,114,116,118,120,122,124,126,-1,-1,-1,-1,-1,-1,-1,-1,-1,-1,-1,-1,-1,-1,-1,-1,-1,-1,-1,-1,-1,-1,-1,-1,-1,-1,-1,-1,-1,-1,-1,-1,-1,-1,-1,-1,-1,-1,-1,-1,-1,-1,-1,-1,-1,-1,-1,-1,-1,-1,-1,-1,-1,-1,-1,-1,-1,-1,-1,-1,-1,-1,-1,-1],"split_conditions":[-5.1625E0,1.064095E2,2.691E1,1.7E1,1.264095E2,9.15E1,7.556E1,2.3E-1,2.5E1,9E0,9.15E1,1.224095E2,9.531E1,1E-2,2.848E1,2.881E1,-7.1625E0,2.1E1,-6.6625E0,6E0,2.8E1,2E1,1.389095E2,7E0,1.364095E2,8E0,9.825E1,6.944E1,7E-2,-3.1625E0,8.044E1,5E0,2.973E1,9E0,1.049095E2,1.2E1,2.4E1,2.8E1,1.049095E2,7.862E1,-9.1625E0,2.624E1,-9.1625E0,5E0,2.5E1,-5.6625E0,-8.1625E0,2.1E1,9.69095E1,1.9E1,-4.6625E0,2.393E1,-4.6625E0,7E0,1.947E1,1.094095E2,1.6E1,6.994E1,2E1,1.7E1,9.056E1,3E-2,7E-2,3.0101743E-1,4.400474E-1,-1.5941598E-1,-4.339736E-1,4.961057E-1,2.1500565E-1,1.0406876E-1,-3.059888E-1,3.1102517E-1,2.0520796E-1,-1.0039558E-1,1.6550691E-1,2.8033888E-1,3.7851483E-1,2.2404316E-1,-3.922178E-1,-1.504712E-1,7.393611E-2,5.926147E-1,2.4044164E-1,-2.2292714E-1,-4.6097282E-2,3.7046486E-1,3.6469407E-2,1.0023811E-1,4.0739834E-1,6.097403E-3,1.9162437E-1,3.903027E-2,-3.112177E-1,2.0338926E-1,-4.5244887E-1,-1.3499433E-1,-2.9934993E-1,-6.656657E-2,-3.0967763E-1,-2.440919E-2,-2.3415995E-1,-5.4595107E-1,-2.4324061E-1,-3.020701E-1,-2.198704E-1,-5.0244826E-1,-3.0053318E-1,-2.9411933E-1,-3.404926E-1,-2.953188E-1,-3.5620496E-1,-7.5336434E-2,-3.1318054E-1,1.9516993E-1,-2.2209529E-2,-3.0984586E-1,-1.6097294E-1,-3.9110994E-1,-2.7457646E-1,1.8906361E-1,-4.2306893E-2,-1.10304385E-1,-5.1497835E-1,2.396863E-1,-4.8726276E-2,3.5093188E-1,1.5130156E-1],"split_indices":[7,8,4,2,8,5,5,6,2,2,5,8,5,6,4,4,7,2,7,2,2,2,8,3,8,3,5,5,6,7,5,2,4,2,8,3,2,2,8,5,7,4,7,2,2,7,7,2,8,2,7,4,7,3,4,8,2,5,2,2,5,6,6,0,0,0,0,0,0,0,0,0,0,0,0,0,0,0,0,0,0,0,0,0,0,0,0,0,0,0,0,0,0,0,0,0,0,0,0,0,0,0,0,0,0,0,0,0,0,0,0,0,0,0,0,0,0,0,0,0,0,0,0,0,0,0,0],"split_type":[0,0,0,0,0,0,0,0,0,0,0,0,0,0,0,0,0,0,0,0,0,0,0,0,0,0,0,0,0,0,0,0,0,0,0,0,0,0,0,0,0,0,0,0,0,0,0,0,0,0,0,0,0,0,0,0,0,0,0,0,0,0,0,0,0,0,0,0,0,0,0,0,0,0,0,0,0,0,0,0,0,0,0,0,0,0,0,0,0,0,0,0,0,0,0,0,0,0,0,0,0,0,0,0,0,0,0,0,0,0,0,0,0,0,0,0,0,0,0,0,0,0,0,0,0,0,0],"sum_hessian":[2.13192E6,8.1216E5,1.31976E6,2.0736E5,6.048E5,3.23259E5,9.96501E5,1.10592E5,9.6768E4,3.456E5,2.592E5,1.2133E5,2.01929E5,1.82087E5,8.14414E5,1.00915E5,9.677E3,5.5296E4,4.1472E4,9.216E4,2.5344E5,2.38618E5,2.0582E4,7.0949E4,5.0381E4,6.0257E4,1.41672E5,6.3844E4,1.18243E5,4.51036E5,3.63378E5,9.9981E4,9.34E2,2.616E3,7.061E3,2.7648E4,2.7648E4,3.1104E4,1.0368E4,5.76E4,3.456E4,2.1888E5,3.456E4,1.52828E5,8.579E4,6.849E3,1.3733E4,1.7599E4,5.335E4,3.9215E4,1.1166E4,2.8344E4,3.1913E4,7.1652E4,7.002E4,2.134E4,4.2504E4,6.5809E4,5.2434E4,1.28907E5,3.22129E5,2.0178E5,1.61598E5,2.5398E4,7.4583E4,4.32E2,5.02E2,8.74E2,1.742E3,6.374E3,6.87E2,1.3824E4,1.3824E4,2.0736E4,6.912E3,1.5552E4,1.5552E4,9.072E3,1.296E3,1.7255E4,4.0345E4,1.152E4,2.304E4,2.9572E4,1.89308E5,1.152E4,2.304E4,3.1963E4,1.20865E5,3.7267E4,4.8523E4,5.25E3,1.599E3,1.226E3,1.2507E4,1.1996E4,5.603E3,1.184E3,5.2166E4,2.8566E4,1.0649E4,1.631E3,9.535E3,9.871E3,1.8473E4,9.95E2,3.0918E4,3.3811E4,3.7841E4,6.426E3,6.3594E4,5.367E3,1.5973E4,2.3452E4,1.9052E4,1.4931E4,5.0878E4,2.631E4,2.6124E4,6.6252E4,6.2655E4,3.1374E5,8.389E3,4.4047E4,1.57733E5,2.5979E4,1.35619E5],"tree_param":{"num_deleted":"0","num_feature":"9","num_nodes":"127","size_leaf_vector":"1"}},{"base_weights":[-7.1978807E-6,1.0686669E-1,-6.9188666E-1,3.3793655E-1,-1.5765113E-1,-2.8534618E-1,-7.429218E-1,4.9524012E-1,5.9042E-2,1.12173975E-1,-2.9060474E-1,-5.036627E-1,2.533862E-1,-7.345683E-1,-1.8585016E0,-2.9367715E-1,5.7098997E-1,-1.7119521E-1,4.431228E-1,-9.1590166E-2,5.3579766E-1,-4.8515138E-1,-2.7781248E-2,8.363332E-1,-5.318587E-1,4.1756517E-1,-1.1703418E0,-5.579849E-1,-7.732841E-1,2.1574542E-1,-2.250178E0,-1.7882657E-1,-7.4796057E-1,2.3487526E-1,6.635939E-1,-4.4607535E-1,5.1760636E-3,-1.9400899E-1,5.199322E-1,5.4368395E-2,-3.9240837E-1,7.206267E-1,5.331132E-2,-1.4685929E-1,-1.00358E0,-1.5043557E-1,5.2804637E-1,1.1506696E0,3.4661666E-1,-4.099507E-1,-7.385856E-1,-3.3164416E-2,6.5926206E-1,7.1457183E-1,-2.878797E0,-5.1330477E-1,-1.2628486E0,-7.592587E-1,-1.7700578E0,-2.4434407E-1,1.7890558E0,-2.5808918E0,-2.5154874E-1,-1.154566E-1,3.3633314E-2,-1.4676382E-1,-2.869951E-1,2.20356E-1,3.1151729E-2,3.4668496E-1,1.4203137E-1,8.25786E-2,-1.9706334E-1,4.175952E-2,-9.683151E-2,-1.10670455E-1,8.9417584E-2,-1.4618668E-1,1.6627035E-1,-1.1304516E-1,1.04367405E-1,-1.6300368E-1,-3.2515678E-4,7.112E-2,3.000123E-1,-9.705674E-3,2.0881231E-1,-1.3918032E-1,1.077343E-1,-4.2772353E-1,-1.5598303E-1,1.23076085E-2,-1.1811857E-1,-3.6420208E-1,2.1577375E-1,-2.3899963E-1,3.7410715E-1,1.213273E-1,-1.7979199E-1,-1.7419781E-1,5.961592E-3,-1.1952425E-1,-2.9680637E-1,-4.4653133E-2,1.8360472E-1,3.1612596E-1,1.1874517E-1,-5.4752473E-2,2.723949E-1,-1.0542984E0,-7.633814E-1,-2.15803E-1,-9.167372E-2,-5.8839333E-1,-2.2934265E-1,-2.9024234E-1,-2.225568E-1,-3.4111512E-3,-5.7996917E-1,-1.4643885E-1,1.2210866E-1,7.3722225E-1,3.2660523E-1,-8.0376565E-1,3.3211303E-1,-1.9812757E-1,4.0882793E-1],"categories":[],"categories_nodes":[],"categories_segments":[],"categories_sizes":[],"default_left":[0,0,0,0,0,0,0,0,0,0,0,0,0,0,0,0,0,0,0,0,0,0,0,0,0,0,0,0,0,0,0,0,0,0,0,0,0,0,0,0,0,0,0,0,0,0,0,0,0,0,0,0,0,0,0,0,0,0,0,0,0,0,0,0,0,0,0,0,0,0,0,0,0,0,0,0,0,0,0,0,0,0,0,0,0,0,0,0,0,0,0,0,0,0,0,0,0,0,0,0,0,0,0,0,0,0,0,0,0,0,0,0,0,0,0,0,0,0,0,0,0,0,0,0,0,0,0],"id":4,"left_children":[1,3,5,7,9,11,13,15,17,19,21,23,25,27,29,31,33,35,37,39,41,43,45,47,49,51,53,55,57,59,61,63,65,67,69,71,73,75,77,79,81,83,85,87,89,91,93,95,97,99,101,103,105,107,109,111,113,115,117,119,121,123,125,-1,-1,-1,-1,-1,-1,-1,-1,-1,-1,-1,-1,-1,-1,-1,-1,-1,-1,-1,-1,-1,-1,-1,-1,-1,-1,-1,-1,-1,-1,-1,-1,-1,-1,-1,-1,-1,-1,-1,-1,-1,-1,-1,-1,-1,-1,-1,-1,-1,-1,-1,-1,-1,-1,-1,-1,-1,-1,-1,-1,-1,-1,-1,-1],"loss_changes":[1.576425E5,1.1287234E5,5.9181875E3,4.3241625E4,3.0888385E4,3.742258E3,2.3604375E3,3.7661266E4,3.1432496E4,2.4533295E4,2.9492805E4,8.55916E2,2.1453438E3,1.7193438E3,1.5302988E3,2.8804321E3,1.7896812E4,1.0774119E4,6.5194883E3,8.426124E3,8.231758E3,5.813053E4,1.672673E4,7.1489136E1,5.585698E2,8.963795E2,3.0581128E3,1.424081E3,2.8829844E3,2.1759624E2,1.0463345E3,2.6416658E3,6.01124E2,8.1315537E3,4.217611E4,1.320808E4,5.9500903E3,1.2335925E3,4.1077676E3,1.6353823E4,3.7031064E3,9.017375E3,1.4077585E3,3.217874E4,2.6721797E4,9.362678E3,1.4774283E4,5.4281555E1,1.0303799E1,1.0237322E3,7.012344E2,2.1451463E2,5.5621387E2,7.85901E1,9.682715E1,1.8206426E3,9.3696484E2,7.365078E2,8.2128613E2,3.719797E1,2.9155075E1,4.9576953E2,1.5007191E2,0E0,0E0,0E0,0E0,0E0,0E0,0E0,0E0,0E0,0E0,0E0,0E0,0E0,0E0,0E0,0E0,0E0,0E0,0E0,0E0,0E0,0E0,0E0,0E0,0E0,0E0,0E0,0E0,0E0,0E0,0E0,0E0,0E0,0E0,0E0,0E0,0E0,0E0,0E0,0E0,0E0,0E0,0E0,0E0,0E0,0E0,0E0,0E0,0E0,0E0,0E0,0E0,0E0,0E0,0E0,0E0,0E0,0E0,0E0,0E0,0E0,0E0,0E0,0E0],"parents":[2147483647,0,0,1,1,2,2,3,3,4,4,5,5,6,6,7,7,8,8,9,9,10,10,11,11,12,12,13,13,14,14,15,15,16,16,17,17,18,18,19,19,20,20,21,21,22,22,23,23,24,24,25,25,26,26,27,27,28,28,29,29,30,30,31,31,32,32,33,33,34,34,35,35,36,36,37,37,38,38,39,39,40,40,41,41,42,42,43,43,44,44,45,45,46,46,47,47,48,48,49,49,50,50,51,51,52,52,53,53,54,54,55,55,56,56,57,57,58,58,59,59,60,60,61,61,62,62],"right_children":[2,4,6,8,10,12,14,16,18,20,22,24,26,28,30,32,34,36,38,40,42,44,46,48,50,52,54,56,58,60,62,64,66,68,70,72,74,76,78,80,82,84,86,88,90,92,94,96,98,100,102,104,106,108,110,112,114,116,118,120,122,124,126,-1,-1,-1,-1,-1,-1,-1,-1,-1,-1,-1,-1,-1,-1,-1,-1,-1,-1,-1,-1,-1,-1,-1,-1,-1,-1,-1,-1,-1,-1,-1,-1,-1,-1,-1,-1,-1,-1,-1,-1,-1,-1,-1,-1,-1,-1,-1,-1,-1,-1,-1,-1,-1,-1,-1,-1,-1,-1,-1,-1,-1,-1,-1,-1],"split_conditions":[9E1,-3.1625E0,-6.6625E0,2E1,9E0,2.615E1,2.787E1,7.15E1,2.7E1,2.866E1,1.224095E2,1.069095E2,1.399095E2,9.225E1,8E0,2E-2,5E0,8.119E1,7.7E1,2.2E1,2.1E1,1.099095E2,2.924E1,2.1E1,7E0,1.329095E2,-8.1625E0,1.379095E2,2.711E1,1.51E0,2E1,6.75E1,-7.1625E0,1.029095E2,9E0,1.014095E2,-5.6625E0,1.249095E2,2.628E1,9E0,2.8E1,1E1,8.256E1,1.044095E2,1.174095E2,1.319095E2,-1.6625E0,2E0,7.06E0,2.456E1,1.144095E2,2.726E1,8E0,-1.01625E1,9.262E1,1.179095E2,-4.6625E0,-4.6625E0,7E0,1.9E1,3.8375E0,4.26E0,1.32E0,-1.154566E-1,3.3633314E-2,-1.4676382E-1,-2.869951E-1,2.20356E-1,3.1151729E-2,3.4668496E-1,1.4203137E-1,8.25786E-2,-1.9706334E-1,4.175952E-2,-9.683151E-2,-1.10670455E-1,8.9417584E-2,-1.4618668E-1,1.6627035E-1,-1.1304516E-1,1.04367405E-1,-1.6300368E-1,-3.2515678E-4,7.112E-2,3.000123E-1,-9.705674E-3,2.0881231E-1,-1.3918032E-1,1.077343E-1,-4.2772353E-1,-1.5598303E-1,1.23076085E-2,-1.1811857E-1,-3.6420208E-1,2.1577375E-1,-2.3899963E-1,3.7410715E-1,1.213273E-1,-1.7979199E-1,-1.7419781E-1,5.961592E-3,-1.1952425E-1,-2.9680637E-1,-4.4653133E-2,1.8360472E-1,3.1612596E-1,1.1874517E-1,-5.4752473E-2,2.723949E-1,-1.0542984E0,-7.633814E-1,-2.15803E-1,-9.167372E-2,-5.8839333E-1,-2.2934265E-1,-2.9024234E-1,-2.225568E-1,-3.4111512E-3,-5.7996917E-1,-1.4643885E-1,1.2210866E-1,7.3722225E-1,3.2660523E-1,-8.0376565E-1,3.3211303E-1,-1.9812757E-1,4.0882793E-1],"split_indices":[5,7,7,2,3,4,4,5,2,4,8,8,8,5,3,6,2,5,5,2,2,8,4,2,3,8,7,8,4,6,3,5,7,8,2,8,7,8,4,2,2,2,5,8,8,8,7,2,6,4,8,4,3,7,5,8,7,7,3,2,7,6,6,0,0,0,0,0,0,0,0,0,0,0,0,0,0,0,0,0,0,0,0,0,0,0,0,0,0,0,0,0,0,0,0,0,0,0,0,0,0,0,0,0,0,0,0,0,0,0,0,0,0,0,0,0,0,0,0,0,0,0,0,0,0,0,0],"split_type":[0,0,0,0,0,0,0,0,0,0,0,0,0,0,0,0,0,0,0,0,0,0,0,0,0,0,0,0,0,0,0,0,0,0,0,0,0,0,0,0,0,0,0,0,0,0,0,0,0,0,0,0,0,0,0,0,0,0,0,0,0,0,0,0,0,0,0,0,0,0,0,0,0,0,0,0,0,0,0,0,0,0,0,0,0,0,0,0,0,0,0,0,0,0,0,0,0,0,0,0,0,0,0,0,0,0,0,0,0,0,0,0,0,0,0,0,0,0,0,0,0,0,0,0,0,0,0],"sum_hessian":[2.13192E6,1.846668E6,2.85252E5,9.85651E5,8.61017E5,3.1816E4,2.53436E5,6.30201E5,3.5545E5,2.84214E5,5.76803E5,2.2641E4,9.175E3,2.51554E5,1.882E3,5.5209E4,5.74992E5,2.22233E5,1.33217E5,1.91907E5,9.2307E4,3.31454E5,2.45349E5,4.66E2,2.2175E4,8.227E3,9.48E2,4.5238E4,2.06316E5,2.99E2,1.583E3,4.4069E4,1.114E4,1.242E5,4.50792E5,8.6859E4,1.35374E5,1.4332E4,1.18885E5,1.29213E5,6.2694E4,6.674E4,2.5567E4,2.00574E5,1.3088E5,2.00996E5,4.4353E4,2.83E2,1.83E2,1.3951E4,8.224E3,2.872E3,5.355E3,4.51E2,4.97E2,4.2543E4,2.695E3,2.03455E5,2.861E3,2.32E2,6.7E1,1.358E3,2.25E2,2.5799E4,1.827E4,4.975E3,6.165E3,2.5804E4,9.8396E4,1.25656E5,3.25136E5,1.9643E4,6.7216E4,9.6101E4,3.9273E4,1.0574E4,3.758E3,3.915E3,1.1497E5,5.2334E4,7.6879E4,4.5243E4,1.7451E4,2.4442E4,4.2298E4,2.2561E4,3.006E3,1.23304E5,7.727E4,6.988E4,6.1E4,1.1248E5,8.8516E4,4.386E3,3.9967E4,1.3E1,2.7E2,1.73E2,1E1,9.985E3,3.966E3,3.491E3,4.733E3,2.436E3,4.36E2,2.143E3,3.212E3,8E1,3.71E2,1.68E2,3.29E2,2.1357E4,2.1186E4,1.121E3,1.574E3,1.5689E4,1.87766E5,2.43E2,2.618E3,1.69E2,6.3E1,3.3E1,3.4E1,1.323E3,3.5E1,1.8E2,4.5E1],"tree_param":{"num_deleted":"0","num_feature":"9","num_nodes":"127","size_leaf_vector":"1"}},{"base_weights":[-6.591056E-6,-4.8061618E-1,8.060996E-2,2.3996031E-1,-5.069154E-1,3.182241E-1,-6.1659545E-2,-2.3246035E-1,1.5267997E0,-4.6937162E-1,-5.809757E-1,2.0907684E-1,7.398141E-1,4.7061913E-2,-2.752413E-1,1.5150869E-1,-8.047044E-1,8.828519E-1,2.0159764E0,-4.1578147E-1,-5.8094275E-1,-5.973069E-1,-3.8541785E-1,5.9476054E-1,-5.161661E-2,8.6699563E-1,-9.021196E-1,1.20491795E-1,-6.0616696E-1,-4.181474E-1,-6.048386E-2,4.846683E-1,-8.0100524E-1,-4.6047536E-1,-1.3635882E0,-1.0069575E-2,1.0495965E0,2.2821648E0,1.3555076E0,-2.856589E-1,-5.0616324E-1,-4.9638277E-1,-6.062027E-1,-8.897623E-1,-5.893349E-1,-5.2742475E-1,-7.016886E-2,7.2518474E-1,2.4004872E-1,-1.3609684E-1,2.96259E-1,9.72317E-1,3.474602E-2,1.0620643E0,-1.9732455E0,3.699436E-1,-3.0640164E-2,-9.715659E-1,-4.597232E-1,-4.6061316E-1,2.0031488E-1,6.932514E-1,-1.7266464E-1,5.3061407E-2,3.256702E-1,-5.3751266E-1,-1.6307908E-1,-2.0325641E-1,-1.1991068E-2,-4.3838015E-1,-4.051487E-2,-2.717171E-2,1.0641267E-1,3.4360436E-1,2.2881454E-1,7.058525E-1,2.87253E-1,2.806257E-1,9.500865E-1,-1.3869964E-1,-3.533502E-2,-1.0320733E-1,-1.7330167E-1,-1.4070617E-1,-5.663015E-1,-1.6929957E-1,-1.8977727E-1,-2.8984E-1,3.7694705E-1,-1.9480668E-1,-1.7022982E-1,-1.1304051E-1,-1.8791012E-1,-6.766129E-2,1.0776931E-1,3.1582555E-1,1.7978694E-1,1.3782735E-1,-1.9844852E-1,-9.2888385E-2,-5.409444E-3,-1.8438108E-1,1.3183664E-1,3.540963E-1,1.9484754E-1,1.0766173E-1,-2.8991574E-1,5.051813E-1,2.3924981E-1,-2.85616E-1,-9.959692E-1,2.4412988E-2,1.7847668E-1,4.0915392E-2,-6.749202E-2,-3.704841E-1,-2.2272766E-1,-1.7811866E-1,2.1618284E-2,-2.0738421E-2,-1.4862582E-1,-6.877525E-1,1.4142984E-1,3.2391956E-1,1.22714385E-1,-1.1153292E-1,1.5015311E-2],"categories":[],"categories_nodes":[],"categories_segments":[],"categories_sizes":[],"default_left":[0,0,0,0,0,0,0,0,0,0,0,0,0,0,0,0,0,0,0,0,0,0,0,0,0,0,0,0,0,0,0,0,0,0,0,0,0,0,0,0,0,0,0,0,0,0,0,0,0,0,0,0,0,0,0,0,0,0,0,0,0,0,0,0,0,0,0,0,0,0,0,0,0,0,0,0,0,0,0,0,0,0,0,0,0,0,0,0,0,0,0,0,0,0,0,0,0,0,0,0,0,0,0,0,0,0,0,0,0,0,0,0,0,0,0,0,0,0,0,0,0,0,0,0,0,0,0],"id":5,"left_children":[1,3,5,7,9,11,13,15,17,19,21,23,25,27,29,31,33,35,37,39,41,43,45,47,49,51,53,55,57,59,61,63,65,67,69,71,73,75,77,79,81,83,85,87,89,91,93,95,97,99,101,103,105,107,109,111,113,115,117,119,121,123,125,-1,-1,-1,-1,-1,-1,-1,-1,-1,-1,-1,-1,-1,-1,-1,-1,-1,-1,-1,-1,-1,-1,-1,-1,-1,-1,-1,-1,-1,-1,-1,-1,-1,-1,-1,-1,-1,-1,-1,-1,-1,-1,-1,-1,-1,-1,-1,-1,-1,-1,-1,-1,-1,-1,-1,-1,-1,-1,-1,-1,-1,-1,-1,-1],"loss_changes":[8.260151E4,5.803508E3,6.171775E4,6.556266E3,8.212344E2,3.146214E4,2.6517188E4,1.7335248E3,9.1047314E2,1.1720742E3,3.171836E2,5.460854E4,2.9363688E4,3.629835E4,1.1822156E4,1.4988639E3,6.088447E2,1.8642065E2,2.861123E2,1.5575957E3,1.3558008E2,2.1332812E2,3.4301648E2,1.0133742E4,9.524154E3,1.1439039E4,2.1270303E4,2.5646393E4,4.0914902E3,6.0747812E3,1.3014257E4,6.469652E2,3.1116498E2,1.7904254E2,1.4464526E2,5.846533E0,2.8106567E1,1.0737891E2,3.584975E2,1.610227E3,9.060293E2,5.5636597E2,5.3759766E1,3.9984644E2,1.1701758E2,7.849646E1,1.5893022E2,6.604211E3,1.1647581E4,5.342305E3,8.259637E3,7.777961E3,4.7577417E3,5.856853E2,8.99333E3,1.666223E4,1.3750118E4,1.3194492E3,3.8904531E3,2.9491602E3,1.0045548E4,2.189749E3,5.9411807E3,0E0,0E0,0E0,0E0,0E0,0E0,0E0,0E0,0E0,0E0,0E0,0E0,0E0,0E0,0E0,0E0,0E0,0E0,0E0,0E0,0E0,0E0,0E0,0E0,0E0,0E0,0E0,0E0,0E0,0E0,0E0,0E0,0E0,0E0,0E0,0E0,0E0,0E0,0E0,0E0,0E0,0E0,0E0,0E0,0E0,0E0,0E0,0E0,0E0,0E0,0E0,0E0,0E0,0E0,0E0,0E0,0E0,0E0,0E0,0E0,0E0,0E0,0E0,0E0],"parents":[2147483647,0,0,1,1,2,2,3,3,4,4,5,5,6,6,7,7,8,8,9,9,10,10,11,11,12,12,13,13,14,14,15,15,16,16,17,17,18,18,19,19,20,20,21,21,22,22,23,23,24,24,25,25,26,26,27,27,28,28,29,29,30,30,31,31,32,32,33,33,34,34,35,35,36,36,37,37,38,38,39,39,40,40,41,41,42,42,43,43,44,44,45,45,46,46,47,47,48,48,49,49,50,50,51,51,52,52,53,53,54,54,55,55,56,56,57,57,58,58,59,59,60,60,61,61,62,62],"right_children":[2,4,6,8,10,12,14,16,18,20,22,24,26,28,30,32,34,36,38,40,42,44,46,48,50,52,54,56,58,60,62,64,66,68,70,72,74,76,78,80,82,84,86,88,90,92,94,96,98,100,102,104,106,108,110,112,114,116,118,120,122,124,126,-1,-1,-1,-1,-1,-1,-1,-1,-1,-1,-1,-1,-1,-1,-1,-1,-1,-1,-1,-1,-1,-1,-1,-1,-1,-1,-1,-1,-1,-1,-1,-1,-1,-1,-1,-1,-1,-1,-1,-1,-1,-1,-1,-1,-1,-1,-1,-1,-1,-1,-1,-1,-1,-1,-1,-1,-1,-1,-1,-1,-1,-1,-1,-1],"split_conditions":[2.598E1,-9.6625E0,-5.6625E0,1.329095E2,2E1,1.314095E2,2.1E1,2.1E1,1.394095E2,9.75E1,1.8E0,1.094095E2,2.806E1,1E1,2.7E1,1.204095E2,8E0,4E0,9E0,7E0,-3.1625E0,-8.6625E0,1.374095E2,-7.1625E0,-6.6625E0,8.956E1,1.379095E2,1E1,2.805E1,1.379095E2,9.99095E1,2E-2,-1.01625E1,2.3E1,2.3E1,2E-2,4E-2,2E1,1.9E1,2.433E1,1.104095E2,2.566E1,9.869E1,1.269095E2,9.188E1,9.719E1,-3.6625E0,9E0,1.054095E2,7.906E1,1.124095E2,2.69E1,1.389095E2,7.406E1,-7.1625E0,2.798E1,1.1E-1,8.356E1,8.238E1,9.74095E1,-2.6625E0,-1.6625E0,1.229095E2,5.3061407E-2,3.256702E-1,-5.3751266E-1,-1.6307908E-1,-2.0325641E-1,-1.1991068E-2,-4.3838015E-1,-4.051487E-2,-2.717171E-2,1.0641267E-1,3.4360436E-1,2.2881454E-1,7.058525E-1,2.87253E-1,2.806257E-1,9.500865E-1,-1.3869964E-1,-3.533502E-2,-1.0320733E-1,-1.7330167E-1,-1.4070617E-1,-5.663015E-1,-1.6929957E-1,-1.8977727E-1,-2.8984E-1,3.7694705E-1,-1.9480668E-1,-1.7022982E-1,-1.1304051E-1,-1.8791012E-1,-6.766129E-2,1.0776931E-1,3.1582555E-1,1.7978694E-1,1.3782735E-1,-1.9844852E-1,-9.2888385E-2,-5.409444E-3,-1.8438108E-1,1.3183664E-1,3.540963E-1,1.9484754E-1,1.0766173E-1,-2.8991574E-1,5.051813E-1,2.3924981E-1,-2.85616E-1,-9.959692E-1,2.4412988E-2,1.7847668E-1,4.0915392E-2,-6.749202E-2,-3.704841E-1,-2.2272766E-1,-1.7811866E-1,2.1618284E-2,-2.0738421E-2,-1.4862582E-1,-6.877525E-1,1.4142984E-1,3.2391956E-1,1.22714385E-1,-1.1153292E-1,1.5015311E-2],"split_indices":[4,7,7,8,2,8,2,2,8,5,6,8,4,1,2,8,3,2,3,3,7,7,8,7,7,5,8,3,4,8,8,6,7,2,2,6,6,2,3,4,8,4,5,8,5,5,7,2,8,5,8,4,8,5,7,4,6,5,5,8,7,7,8,0,0,0,0,0,0,0,0,0,0,0,0,0,0,0,0,0,0,0,0,0,0,0,0,0,0,0,0,0,0,0,0,0,0,0,0,0,0,0,0,0,0,0,0,0,0,0,0,0,0,0,0,0,0,0,0,0,0,0,0,0,0,0,0],"split_type":[0,0,0,0,0,0,0,0,0,0,0,0,0,0,0,0,0,0,0,0,0,0,0,0,0,0,0,0,0,0,0,0,0,0,0,0,0,0,0,0,0,0,0,0,0,0,0,0,0,0,0,0,0,0,0,0,0,0,0,0,0,0,0,0,0,0,0,0,0,0,0,0,0,0,0,0,0,0,0,0,0,0,0,0,0,0,0,0,0,0,0,0,0,0,0,0,0,0,0,0,0,0,0,0,0,0,0,0,0,0,0,0,0,0,0,0,0,0,0,0,0,0,0,0,0,0,0],"sum_hessian":[2.13192E6,3.06236E5,1.825684E6,1.0783E4,2.95453E5,6.83733E5,1.141951E6,7.888E3,2.895E3,1.96067E5,9.9386E4,5.43123E5,1.4061E5,7.56741E5,3.8521E5,4.721E3,3.167E3,1.251E3,1.644E3,1.32452E5,6.3615E4,9.1724E4,7.662E3,2.19049E5,3.24074E5,1.30502E5,1.0108E4,6.80272E5,7.6469E4,2.31297E5,1.53913E5,3.498E3,1.223E3,1.961E3,1.206E3,1.97E2,1.054E3,1.17E3,4.74E2,5.4292E4,7.816E4,1.4637E4,4.8978E4,2.431E3,8.9293E4,5.282E3,2.38E3,1.60159E5,5.889E4,2.60752E5,6.3322E4,1.15842E5,1.466E4,3.567E3,6.541E3,2.56652E5,4.2362E5,2.1877E4,5.4592E4,2.16436E5,1.4861E4,1.9939E4,1.33974E5,2.314E3,1.184E3,2.51E2,9.72E2,1.293E3,6.68E2,1.117E3,8.9E1,1.62E2,3.5E1,7.88E2,2.66E2,1.11E3,6E1,3.86E2,8.8E1,2.6452E4,2.784E4,2.3923E4,5.4237E4,1.4356E4,2.81E2,1.8943E4,3.0035E4,2.348E3,8.3E1,2.3865E4,6.5428E4,2.096E3,3.186E3,1.748E3,6.32E2,4.4463E4,1.15696E5,4.7365E4,1.1525E4,1.05576E5,1.55176E5,8.602E3,5.472E4,7.0448E4,4.5394E4,1.1075E4,3.585E3,1.063E3,2.504E3,3.721E3,2.82E3,1.12437E5,1.44215E5,2.27817E5,1.95803E5,1.0176E4,1.1701E4,4.3604E4,1.0988E4,1.7672E4,1.98764E5,1.457E3,1.3404E4,8.448E3,1.1491E4,7.0735E4,6.3239E4],"tree_param":{"num_deleted":"0","num_feature":"9","num_nodes":"127","size_leaf_vector":"1"}},{"base_weights":[-5.121346E-6,1.4296086E-1,-1.475829E-1,-2.361419E-1,1.9742425E-1,-3.350626E-1,1.0190675E-2,2.0514192E-1,-3.002941E-1,-2.2618473E-2,2.7506086E-1,-4.1308358E-1,-1.6328298E-1,-2.4414624E-1,2.2708488E-1,-1.609141E-1,1.1105572E0,-2.3803917E-1,-4.3821806E-1,8.044465E-2,-6.7621803E-1,3.985283E-1,9.98945E-2,-1.09102584E-1,-5.0054586E-1,5.1223937E-2,-5.7210726E-1,-3.5666406E-2,-4.830985E-1,1.269744E-1,6.1761165E-1,9.732983E-2,-5.8424664E-1,6.8868625E-1,1.5245842E0,-4.4147246E-2,-3.1407452E-1,-3.7412813E-1,-7.4049395E-1,5.5577105E-1,1.9660888E-2,-5.318379E-1,-2.2574382E0,4.7498876E-1,9.865112E-2,-5.9496798E-3,3.5550222E-1,-3.863959E-1,1.8874447E-1,-3.8735268E-1,-7.168011E-1,3.1036937E-1,-3.9134255E-1,-9.968454E-1,-4.232703E-1,-2.634494E-1,1.8486859E-1,-5.451554E-1,-1.6004368E-4,-3.8233288E-2,3.9432642E-1,-7.1929115E-1,7.1391827E-1,1.1114565E-1,-1.8470503E-1,-8.897265E-2,-3.3334285E-1,2.4422963E-1,4.34756E-2,4.9251106E-1,1.2934282E-1,1.3313523E-1,-6.7296654E-2,-1.8151581E-1,-5.0558742E-2,-1.3638718E-1,-7.594465E-2,-1.2880023E-1,-3.2996777E-1,1.9008437E-1,-9.820659E-4,5.902177E-2,-5.220045E-2,1.6415736E-1,-1.8854107E-1,-6.399764E-2,-9.2506355E-1,1.15064435E-1,2.4822354E-1,5.8868125E-2,-5.530873E-1,8.598094E-2,-2.1690516E-2,8.42757E-3,1.4196931E-1,-3.0758783E-1,-5.734944E-2,2.3390281E-1,-1.293676E-2,-9.3370765E-2,-1.2667844E-1,-5.713057E-2,-2.8839004E-1,-7.414866E-2,2.7672148E-1,-1.847152E-1,-4.100621E-2,-3.5049653E-1,-1.6103011E-1,-1.5792835E-1,2.7741106E-2,-2.4054588E-3,-1.1376606E-1,5.5222698E-3,2.6716936E-1,-2.3822851E-1,-1.2347067E-1,-4.773579E-2,3.7272057E-1,1.558923E-1,-4.4713445E-2,1.703591E-1,2.844945E-2,2.3412366E-1,-3.504862E-1,2.5801235E-1,5.1762003E-2],"categories":[],"categories_nodes":[],"categories_segments":[],"categories_sizes":[],"default_left":[0,0,0,0,0,0,0,0,0,0,0,0,0,0,0,0,0,0,0,0,0,0,0,0,0,0,0,0,0,0,0,0,0,0,0,0,0,0,0,0,0,0,0,0,0,0,0,0,0,0,0,0,0,0,0,0,0,0,0,0,0,0,0,0,0,0,0,0,0,0,0,0,0,0,0,0,0,0,0,0,0,0,0,0,0,0,0,0,0,0,0,0,0,0,0,0,0,0,0,0,0,0,0,0,0,0,0,0,0,0,0,0,0,0,0,0,0,0,0,0,0,0,0,0,0,0,0],"id":6,"left_children":[1,3,5,7,9,11,13,15,17,19,21,23,25,27,29,31,33,35,37,39,41,43,45,47,49,51,53,55,57,59,61,63,65,67,69,71,73,75,77,79,81,83,85,87,89,91,93,95,97,99,101,103,105,107,109,111,113,115,117,119,121,123,125,-1,-1,-1,-1,-1,-1,-1,-1,-1,-1,-1,-1,-1,-1,-1,-1,-1,-1,-1,-1,-1,-1,-1,-1,-1,-1,-1,-1,-1,-1,-1,-1,-1,-1,-1,-1,-1,-1,-1,-1,-1,-1,-1,-1,-1,-1,-1,-1,-1,-1,-1,-1,-1,-1,-1,-1,-1,-1,-1,-1,-1,-1,-1,-1],"loss_changes":[4.4980574E4,2.2358537E4,3.1029947E4,3.8509497E3,1.6175441E4,6.424918E3,3.1424451E4,5.7226963E3,1.0196572E3,1.6634834E4,1.5137109E4,8.76457E3,1.3130785E4,1.306168E4,1.2020243E4,1.344293E3,8.6721484E2,1.2063911E3,7.1523975E2,6.162998E3,7.677793E3,9.413055E3,7.8288433E3,6.0836436E3,6.266297E3,1.1263162E4,3.2569492E3,7.034181E3,3.6613633E3,1.0809179E4,8.077676E3,1.4878325E3,7.0584827E2,1.6791492E2,3.2047412E2,2.0266698E3,2.4892622E3,2.9666016E2,7.2195215E2,1.0524829E3,6.4858447E3,3.2142295E3,4.751217E3,1.0541641E4,1.5808172E4,3.9723074E3,3.2662266E3,4.7578516E3,4.866074E3,4.4639062E2,1.1319527E4,2.1135277E4,2.072204E3,1.054166E3,2.0301514E3,2.0369395E3,8.357565E3,3.599795E3,2.7480503E3,9.35068E3,4.8578047E3,2.8398022E3,4.629158E3,0E0,0E0,0E0,0E0,0E0,0E0,0E0,0E0,0E0,0E0,0E0,0E0,0E0,0E0,0E0,0E0,0E0,0E0,0E0,0E0,0E0,0E0,0E0,0E0,0E0,0E0,0E0,0E0,0E0,0E0,0E0,0E0,0E0,0E0,0E0,0E0,0E0,0E0,0E0,0E0,0E0,0E0,0E0,0E0,0E0,0E0,0E0,0E0,0E0,0E0,0E0,0E0,0E0,0E0,0E0,0E0,0E0,0E0,0E0,0E0,0E0,0E0,0E0,0E0],"parents":[2147483647,0,0,1,1,2,2,3,3,4,4,5,5,6,6,7,7,8,8,9,9,10,10,11,11,12,12,13,13,14,14,15,15,16,16,17,17,18,18,19,19,20,20,21,21,22,22,23,23,24,24,25,25,26,26,27,27,28,28,29,29,30,30,31,31,32,32,33,33,34,34,35,35,36,36,37,37,38,38,39,39,40,40,41,41,42,42,43,43,44,44,45,45,46,46,47,47,48,48,49,49,50,50,51,51,52,52,53,53,54,54,55,55,56,56,57,57,58,58,59,59,60,60,61,61,62,62],"right_children":[2,4,6,8,10,12,14,16,18,20,22,24,26,28,30,32,34,36,38,40,42,44,46,48,50,52,54,56,58,60,62,64,66,68,70,72,74,76,78,80,82,84,86,88,90,92,94,96,98,100,102,104,106,108,110,112,114,116,118,120,122,124,126,-1,-1,-1,-1,-1,-1,-1,-1,-1,-1,-1,-1,-1,-1,-1,-1,-1,-1,-1,-1,-1,-1,-1,-1,-1,-1,-1,-1,-1,-1,-1,-1,-1,-1,-1,-1,-1,-1,-1,-1,-1,-1,-1,-1,-1,-1,-1,-1,-1,-1,-1,-1,-1,-1,-1,-1,-1,-1,-1,-1,-1,-1,-1,-1],"split_conditions":[-3.1625E0,2.611E1,2.816E1,-9.6625E0,7.825E1,1.219095E2,7.862E1,1.344095E2,2E1,5E-2,2E1,9.99095E1,1.319095E2,6E-2,2.912E1,2.1E1,1.394095E2,1.119095E2,2.58E1,9.89095E1,1.394095E2,1.4E-1,2.8E1,1.6E1,2.673E1,1.8E1,8.212E1,7.45E1,1.369095E2,8.231E1,1.044095E2,1.204095E2,9E0,8.456E1,2.1E1,-7.6625E0,1.274095E2,1.369095E2,8E0,2.2E1,1.6E1,9.94095E1,-7.6625E0,1.319095E2,1.379095E2,1.039095E2,2.737E1,7.9E1,1.9E1,1.104095E2,8E0,9E0,8.419E1,2.2E1,-6.625E-1,1.089095E2,2.937E1,1.2E1,2.952E1,5E-2,1.5E1,9.99095E1,2E1,1.1114565E-1,-1.8470503E-1,-8.897265E-2,-3.3334285E-1,2.4422963E-1,4.34756E-2,4.9251106E-1,1.2934282E-1,1.3313523E-1,-6.7296654E-2,-1.8151581E-1,-5.0558742E-2,-1.3638718E-1,-7.594465E-2,-1.2880023E-1,-3.2996777E-1,1.9008437E-1,-9.820659E-4,5.902177E-2,-5.220045E-2,1.6415736E-1,-1.8854107E-1,-6.399764E-2,-9.2506355E-1,1.15064435E-1,2.4822354E-1,5.8868125E-2,-5.530873E-1,8.598094E-2,-2.1690516E-2,8.42757E-3,1.4196931E-1,-3.0758783E-1,-5.734944E-2,2.3390281E-1,-1.293676E-2,-9.3370765E-2,-1.2667844E-1,-5.713057E-2,-2.8839004E-1,-7.414866E-2,2.7672148E-1,-1.847152E-1,-4.100621E-2,-3.5049653E-1,-1.6103011E-1,-1.5792835E-1,2.7741106E-2,-2.4054588E-3,-1.1376606E-1,5.5222698E-3,2.6716936E-1,-2.3822851E-1,-1.2347067E-1,-4.773579E-2,3.7272057E-1,1.558923E-1,-4.4713445E-2,1.703591E-1,2.844945E-2,2.3412366E-1,-3.504862E-1,2.5801235E-1,5.1762003E-2],"split_indices":[7,4,4,7,5,8,5,8,2,6,2,8,8,6,4,2,8,8,4,8,8,6,2,2,4,2,5,5,8,5,8,8,3,5,2,7,8,8,3,2,2,8,7,8,8,8,4,5,2,8,3,2,5,2,7,8,4,2,4,6,3,8,2,0,0,0,0,0,0,0,0,0,0,0,0,0,0,0,0,0,0,0,0,0,0,0,0,0,0,0,0,0,0,0,0,0,0,0,0,0,0,0,0,0,0,0,0,0,0,0,0,0,0,0,0,0,0,0,0,0,0,0,0,0,0,0,0],"split_type":[0,0,0,0,0,0,0,0,0,0,0,0,0,0,0,0,0,0,0,0,0,0,0,0,0,0,0,0,0,0,0,0,0,0,0,0,0,0,0,0,0,0,0,0,0,0,0,0,0,0,0,0,0,0,0,0,0,0,0,0,0,0,0,0,0,0,0,0,0,0,0,0,0,0,0,0,0,0,0,0,0,0,0,0,0,0,0,0,0,0,0,0,0,0,0,0,0,0,0,0,0,0,0,0,0,0,0,0,0,0,0,0,0,0,0,0,0,0,0,0,0,0,0,0,0,0,0],"sum_hessian":[2.13192E6,1.08288E6,1.04904E6,1.36028E5,9.46852E5,4.79389E5,5.69651E5,1.7265E4,1.18763E5,2.46945E5,6.99907E5,3.29659E5,1.4973E5,2.62194E5,3.07457E5,1.2295E4,4.97E3,8.183E4,3.6933E4,2.1331E5,3.3635E4,4.10536E5,2.89371E5,7.3658E4,2.56001E5,9.8204E4,5.1526E4,1.40026E5,1.22168E5,2.44724E5,6.2733E4,7.637E3,4.658E3,2.463E3,2.507E3,2.3051E4,5.8779E4,3.0474E4,6.459E3,2.4184E4,1.89126E5,3.0822E4,2.813E3,3.27127E5,8.3409E4,2.04635E5,8.4736E4,3.8145E4,3.5513E4,1.68045E5,8.7956E4,6.1937E4,3.6267E4,1.3369E4,3.8157E4,6.8881E4,7.1145E4,1.08257E5,1.3911E4,1.51257E5,9.3467E4,4.215E3,5.8518E4,5.522E3,2.115E3,3.014E3,1.644E3,2.001E3,4.62E2,2.264E3,2.43E2,6.216E3,1.6835E4,1.9597E4,3.9182E4,1.8297E4,1.2177E4,3.463E3,2.996E3,2.1228E4,2.956E3,9.8793E4,9.0333E4,2.533E3,2.8289E4,8.1E2,2.003E3,2.59737E5,6.739E4,7.942E4,3.989E3,3.7831E4,1.66804E5,2.2411E4,6.2325E4,8.927E3,2.9218E4,1.0007E4,2.5506E4,5.284E4,1.15205E5,2.7898E4,6.0058E4,3.2412E4,2.9525E4,1.9279E4,1.6988E4,9.738E3,3.631E3,3.1797E4,6.36E3,2.1483E4,4.7398E4,5.7567E4,1.3578E4,3.7804E4,7.0453E4,1.2334E4,1.577E3,2.5065E4,1.26192E5,5.9177E4,3.429E4,9.71E2,3.244E3,4.608E4,1.2438E4],"tree_param":{"num_deleted":"0","num_feature":"9","num_nodes":"127","size_leaf_vector":"1"}},{"base_weights":[-4.489995E-6,9.429379E-2,-1.2937842E-1,-2.5304726E-1,1.3316058E-1,-4.5449498E-1,-6.3241325E-2,-3.0942607E-1,-1.0561575E-1,-7.017106E-2,2.3475926E-1,-5.382654E-1,-2.1644633E-1,7.8861994E-1,-8.903855E-2,-3.8624996E-1,-2.685573E-1,-1.6576146E-1,1.846488E-1,5.974947E-2,-2.144108E-1,3.338612E-1,7.51726E-2,-1.8174428E-1,-5.98022E-1,-3.6317554E-1,2.9638842E-1,6.3633275E-1,1.6588241E0,-2.127271E-1,8.198612E-2,-3.54323E-1,-8.0122733E-1,-6.973331E-2,-2.9784915E-1,3.208425E-1,-1.9480246E-1,9.0095395E-1,-3.0260566E-1,-2.841749E-1,1.7241143E-1,3.6012837E-1,-2.543131E-1,1.1719218E-1,4.1637605E-1,-1.03698805E-1,2.3388307E-1,5.091352E-1,-3.5498562E-1,-7.535147E-1,-4.4774273E-1,-8.736416E-1,-2.881741E-1,1.2647064E-2,9.69576E-1,5.667579E-1,1.5602127E0,2.5411234E0,7.323655E-1,6.0733292E-2,-2.512637E-1,5.722242E-1,8.245166E-3,-1.6583765E-1,-9.7043335E-2,2.3532973E-1,-2.856437E-1,3.7607497E-1,-2.6045896E-2,-8.0708355E-2,-1.07533015E-1,1.14588015E-1,-1.4182653E-1,-5.134317E-2,-2.2588605E-1,2.9090086E-1,-1.079116E-2,1.4982612E-1,-1.7486697E-1,-5.971197E-3,-1.4870404E-1,1.0731421E-1,7.695891E-3,1.6930357E-1,-1.438989E-1,-9.497951E-2,-1.7707229E-2,1.01492904E-1,-4.3674833E-3,2.7962333E-1,9.442342E-2,-4.3698914E-2,4.7419187E-2,8.172646E-2,-6.401275E-2,-7.470378E-2,3.448271E-1,-2.313403E-1,-5.591808E-2,-2.949327E-1,-1.8001261E-1,-2.3515709E-1,-1.0089152E-1,-3.2959822E-1,-1.1402357E-1,-1.3922944E-2,-1.2500916E-1,9.153482E-2,-2.75308E-1,-8.1750685E-1,3.7383583E-1,2.0882984E-1,5.3052098E-2,3.339154E-1,6.114626E-1,3.185484E-1,8.345899E-1,3.0799463E-1,-8.317109E-2,-1.325121E-1,4.181456E-2,-1.7412573E-1,-6.0527388E-2,2.5124457E-1,8.817482E-2,-4.2473126E-2,6.373276E-2],"categories":[],"categories_nodes":[],"categories_segments":[],"categories_sizes":[],"default_left":[0,0,0,0,0,0,0,0,0,0,0,0,0,0,0,0,0,0,0,0,0,0,0,0,0,0,0,0,0,0,0,0,0,0,0,0,0,0,0,0,0,0,0,0,0,0,0,0,0,0,0,0,0,0,0,0,0,0,0,0,0,0,0,0,0,0,0,0,0,0,0,0,0,0,0,0,0,0,0,0,0,0,0,0,0,0,0,0,0,0,0,0,0,0,0,0,0,0,0,0,0,0,0,0,0,0,0,0,0,0,0,0,0,0,0,0,0,0,0,0,0,0,0,0,0,0,0],"id":7,"left_children":[1,3,5,7,9,11,13,15,17,19,21,23,25,27,29,31,33,35,37,39,41,43,45,47,49,51,53,55,57,59,61,63,65,67,69,71,73,75,77,79,81,83,85,87,89,91,93,95,97,99,101,103,105,107,109,111,113,115,117,119,121,123,125,-1,-1,-1,-1,-1,-1,-1,-1,-1,-1,-1,-1,-1,-1,-1,-1,-1,-1,-1,-1,-1,-1,-1,-1,-1,-1,-1,-1,-1,-1,-1,-1,-1,-1,-1,-1,-1,-1,-1,-1,-1,-1,-1,-1,-1,-1,-1,-1,-1,-1,-1,-1,-1,-1,-1,-1,-1,-1,-1,-1,-1,-1,-1,-1],"loss_changes":[2.600889E4,1.6647215E4,1.9326205E4,1.0314717E3,2.2910504E4,3.029623E3,1.6413008E4,2.8174316E2,5.993694E2,6.924576E3,1.1695633E4,2.3941543E3,2.9761597E3,2.9081758E3,1.5334762E4,4.1268604E2,3.4126123E2,4.019333E2,2.0570647E3,7.532774E3,4.0144966E3,8.1562617E3,8.0426743E3,1.9312412E3,2.2487695E3,1.1771104E3,1.6806951E3,1.2001655E3,2.6702646E3,4.433199E3,1.0998533E4,1.7701758E2,5.334397E2,1.7027654E2,8.910156E1,7.788194E1,3.5425555E2,1.5364844E2,7.8887305E2,2.681258E3,3.9823306E3,1.9505634E3,1.9916045E3,3.6655515E3,1.731577E4,1.4631045E3,2.5874912E3,1.5706628E3,9.049121E2,1.6661973E3,1.8331221E3,4.3705225E2,8.331531E2,1.6848247E3,2.6690552E3,8.7629297E2,2.7730518E2,5.934551E2,4.7447083E2,2.053363E3,6.0081367E3,2.9364492E3,8.0908276E3,0E0,0E0,0E0,0E0,0E0,0E0,0E0,0E0,0E0,0E0,0E0,0E0,0E0,0E0,0E0,0E0,0E0,0E0,0E0,0E0,0E0,0E0,0E0,0E0,0E0,0E0,0E0,0E0,0E0,0E0,0E0,0E0,0E0,0E0,0E0,0E0,0E0,0E0,0E0,0E0,0E0,0E0,0E0,0E0,0E0,0E0,0E0,0E0,0E0,0E0,0E0,0E0,0E0,0E0,0E0,0E0,0E0,0E0,0E0,0E0,0E0,0E0,0E0,0E0],"parents":[2147483647,0,0,1,1,2,2,3,3,4,4,5,5,6,6,7,7,8,8,9,9,10,10,11,11,12,12,13,13,14,14,15,15,16,16,17,17,18,18,19,19,20,20,21,21,22,22,23,23,24,24,25,25,26,26,27,27,28,28,29,29,30,30,31,31,32,32,33,33,34,34,35,35,36,36,37,37,38,38,39,39,40,40,41,41,42,42,43,43,44,44,45,45,46,46,47,47,48,48,49,49,50,50,51,51,52,52,53,53,54,54,55,55,56,56,57,57,58,58,59,59,60,60,61,61,62,62],"right_children":[2,4,6,8,10,12,14,16,18,20,22,24,26,28,30,32,34,36,38,40,42,44,46,48,50,52,54,56,58,60,62,64,66,68,70,72,74,76,78,80,82,84,86,88,90,92,94,96,98,100,102,104,106,108,110,112,114,116,118,120,122,124,126,-1,-1,-1,-1,-1,-1,-1,-1,-1,-1,-1,-1,-1,-1,-1,-1,-1,-1,-1,-1,-1,-1,-1,-1,-1,-1,-1,-1,-1,-1,-1,-1,-1,-1,-1,-1,-1,-1,-1,-1,-1,-1,-1,-1,-1,-1,-1,-1,-1,-1,-1,-1,-1,-1,-1,-1,-1,-1,-1,-1,-1,-1,-1,-1],"split_conditions":[1E-1,2.587E1,7.919E1,2.51E1,7.738E1,2.93E1,-9.1625E0,9.262E1,1.339095E2,1E-2,2E1,9.94095E1,7.738E1,2.748E1,2.791E1,1.394095E2,-6.6625E0,9.69095E1,7E0,6.888E1,-9.1625E0,6E0,2.5E1,-1.1625E0,1.224095E2,1.029095E2,1.339095E2,1.374095E2,2E1,9.94095E1,9.99095E1,2.213E1,-8.1625E0,1.069095E2,7E0,-7.1625E0,1E1,-3.6625E0,-8.1625E0,1.5E1,1.5E1,1.239095E2,2.941E1,1.104095E2,8E0,1.344095E2,1.8375E0,2.8E1,2.776E1,1.4E1,-1.6625E0,3.3375E0,1.094095E2,3E-1,-2.6625E0,1.9E1,-1.01625E1,1.7E1,1.194095E2,2.49E1,8.394E1,-1.6625E0,8.3E1,-1.6583765E-1,-9.7043335E-2,2.3532973E-1,-2.856437E-1,3.7607497E-1,-2.6045896E-2,-8.0708355E-2,-1.07533015E-1,1.14588015E-1,-1.4182653E-1,-5.134317E-2,-2.2588605E-1,2.9090086E-1,-1.079116E-2,1.4982612E-1,-1.7486697E-1,-5.971197E-3,-1.4870404E-1,1.0731421E-1,7.695891E-3,1.6930357E-1,-1.438989E-1,-9.497951E-2,-1.7707229E-2,1.01492904E-1,-4.3674833E-3,2.7962333E-1,9.442342E-2,-4.3698914E-2,4.7419187E-2,8.172646E-2,-6.401275E-2,-7.470378E-2,3.448271E-1,-2.313403E-1,-5.591808E-2,-2.949327E-1,-1.8001261E-1,-2.3515709E-1,-1.0089152E-1,-3.2959822E-1,-1.1402357E-1,-1.3922944E-2,-1.2500916E-1,9.153482E-2,-2.75308E-1,-8.1750685E-1,3.7383583E-1,2.0882984E-1,5.3052098E-2,3.339154E-1,6.114626E-1,3.185484E-1,8.345899E-1,3.0799463E-1,-8.317109E-2,-1.325121E-1,4.181456E-2,-1.7412573E-1,-6.0527388E-2,2.5124457E-1,8.817482E-2,-4.2473126E-2,6.373276E-2],"split_indices":[6,4,5,4,5,4,7,5,8,6,2,8,5,4,4,8,7,8,3,5,7,2,2,7,8,8,8,8,2,8,8,4,7,8,3,7,1,7,7,2,2,8,4,8,2,8,7,4,4,2,7,7,8,6,7,2,7,2,8,4,5,7,5,0,0,0,0,0,0,0,0,0,0,0,0,0,0,0,0,0,0,0,0,0,0,0,0,0,0,0,0,0,0,0,0,0,0,0,0,0,0,0,0,0,0,0,0,0,0,0,0,0,0,0,0,0,0,0,0,0,0,0,0,0,0,0,0],"split_type":[0,0,0,0,0,0,0,0,0,0,0,0,0,0,0,0,0,0,0,0,0,0,0,0,0,0,0,0,0,0,0,0,0,0,0,0,0,0,0,0,0,0,0,0,0,0,0,0,0,0,0,0,0,0,0,0,0,0,0,0,0,0,0,0,0,0,0,0,0,0,0,0,0,0,0,0,0,0,0,0,0,0,0,0,0,0,0,0,0,0,0,0,0,0,0,0,0,0,0,0,0,0,0,0,0,0,0,0,0,0,0,0,0,0,0,0,0,0,0,0,0,0,0,0,0,0,0],"sum_hessian":[2.13192E6,1.233121E6,8.98799E5,1.24097E5,1.109024E6,1.51931E5,7.46868E5,8.9768E4,3.4329E4,3.69512E5,7.39512E5,1.12382E5,3.9549E4,2.1952E4,7.24916E5,3.1169E4,5.8599E4,2.8437E4,5.892E3,1.94406E5,1.75106E5,4.56209E5,2.83303E5,1.6133E4,9.6249E4,3.0751E4,8.798E3,1.8684E4,3.268E3,4.20675E5,3.04241E5,2.8944E4,2.225E3,7.525E3,5.1074E4,1.601E3,2.6836E4,2.385E3,3.507E3,4.7969E4,1.46437E5,1.1371E4,1.63735E5,1.25823E5,3.30386E5,1.33192E5,1.50111E5,3.234E3,1.2899E4,4.7302E4,4.8947E4,3.938E3,2.6813E4,6.19E3,2.608E3,1.7377E4,1.307E3,1.673E3,1.595E3,5.196E4,3.68715E5,3.9779E4,2.64462E5,3.891E3,2.5053E4,1.93E2,2.032E3,9.5E1,7.43E3,3.4615E4,1.6459E4,1.487E3,1.14E2,2.5746E4,1.09E3,2.222E3,1.63E2,9.08E2,2.599E3,2.1325E4,2.6644E4,6.4719E4,8.1718E4,9.147E3,2.224E3,1.24141E5,3.9594E4,4.6978E4,7.8845E4,5.439E4,2.75996E5,1.1479E5,1.8402E4,1.38203E5,1.1908E4,1.481E3,1.753E3,3.718E3,9.181E3,1.8949E4,2.8353E4,1.2186E4,3.6761E4,2.704E3,1.234E3,9.307E3,1.7506E4,4.71E3,1.48E3,1.81E2,2.427E3,1.3048E4,4.329E3,6.77E2,6.3E2,2.35E2,1.438E3,1.235E3,3.6E2,7.032E3,4.4928E4,4.8204E4,3.20511E5,2.0366E4,1.9413E4,1.52541E5,1.11921E5],"tree_param":{"num_deleted":"0","num_feature":"9","num_nodes":"127","size_leaf_vector":"1"}},{"base_weights":[-2.7870285E-6,6.059396E-2,-1.05836995E-1,1.8878141E-1,3.468965E-3,-3.13428E-1,-3.945592E-2,2.8527242E-1,-1.0437214E-2,-1.4857353E-1,1.4791885E-1,-4.6602786E-1,-1.9213155E-1,-1.3780338E-1,9.3876004E-2,2.0395069E-1,5.440972E-1,-2.4718547E-1,1.3475774E-1,-2.8603435E-1,-1.672476E-2,3.0485812E-1,3.0589422E-2,-6.6761124E-1,-3.3637935E-1,-3.523364E-1,6.690885E-2,3.6990783E-1,-1.8347873E-1,5.048189E-1,4.850789E-2,3.166074E-1,-1.9888672E-1,2.7381277E-1,8.9585406E-1,-4.482133E-3,-3.814517E-1,4.3240458E-1,-7.451469E-2,-7.705066E-3,-3.6527058E-1,2.9293334E-1,-1.0633303E-1,7.780912E-2,5.508223E-1,-1.6694991E-1,1.30635E-1,-5.709145E-1,-8.5892016E-1,-1.5106697E-1,-4.236219E-1,6.963305E-1,-4.197858E-1,-8.0739605E-1,2.3589519E-1,7.213798E-1,2.6562515E-1,-1.6454388E-1,-5.344933E-1,-1.9260566E-1,5.5879897E-1,-8.422658E-2,2.0453146E-1,1.3716699E-1,2.8351119E-2,-1.3862076E-1,1.7683274E-1,1.8942451E-1,-3.7998132E-2,2.3976003E-1,6.230384E-1,1.5596856E-1,-9.445766E-2,-1.6511673E-1,-5.9813198E-2,8.533514E-2,2.0191024E-1,6.1813924E-2,-8.988326E-2,1.5767914E-1,-6.0636017E-2,-1.4582972E-1,-7.729583E-2,-2.2002839E-2,1.3784099E-1,7.6393825E-3,-1.00212894E-1,7.138112E-2,-9.4975024E-2,2.4226825E-1,-1.8471656E-2,-9.374067E-2,5.149337E-2,6.7007735E-2,2.736733E-3,-1.9456416E-1,-1.1853854E-1,-1.1558987E-1,-2.8298151E-1,-1.5053234E-1,1.2717462E-2,1.2963146E-3,-1.388332E-1,3.3145E-1,7.093266E-2,-8.6304076E-2,-1.9833472E-1,3.962704E-1,-2.7422294E-1,2.8545137E-2,4.2531437E-1,1.7114513E-1,4.074091E-1,4.3942798E-2,2.0176004E-1,-7.110346E-2,-1.2224488E-2,-7.855509E-2,-3.6917394E-1,-1.9607063E-1,8.10377E-2,2.1906948E-1,7.958952E-2,2.7368113E-2,-1.159187E-1,-3.4278598E-2,8.799111E-2],"categories":[],"categories_nodes":[],"categories_segments":[],"categories_sizes":[],"default_left":[0,0,0,0,0,0,0,0,0,0,0,0,0,0,0,0,0,0,0,0,0,0,0,0,0,0,0,0,0,0,0,0,0,0,0,0,0,0,0,0,0,0,0,0,0,0,0,0,0,0,0,0,0,0,0,0,0,0,0,0,0,0,0,0,0,0,0,0,0,0,0,0,0,0,0,0,0,0,0,0,0,0,0,0,0,0,0,0,0,0,0,0,0,0,0,0,0,0,0,0,0,0,0,0,0,0,0,0,0,0,0,0,0,0,0,0,0,0,0,0,0,0,0,0,0,0,0],"id":8,"left_children":[1,3,5,7,9,11,13,15,17,19,21,23,25,27,29,31,33,35,37,39,41,43,45,47,49,51,53,55,57,59,61,63,65,67,69,71,73,75,77,79,81,83,85,87,89,91,93,95,97,99,101,103,105,107,109,111,113,115,117,119,121,123,125,-1,-1,-1,-1,-1,-1,-1,-1,-1,-1,-1,-1,-1,-1,-1,-1,-1,-1,-1,-1,-1,-1,-1,-1,-1,-1,-1,-1,-1,-1,-1,-1,-1,-1,-1,-1,-1,-1,-1,-1,-1,-1,-1,-1,-1,-1,-1,-1,-1,-1,-1,-1,-1,-1,-1,-1,-1,-1,-1,-1,-1,-1,-1,-1],"loss_changes":[1.3672459E4,9.927385E3,1.069643E4,8.0334463E3,2.0596213E4,3.4810898E3,7.712365E3,5.9258887E3,4.687602E3,8.280634E3,8.855126E3,2.1765059E3,4.348552E3,7.8494507E3,4.6547495E3,9.72259E3,6.3993086E3,1.6893013E3,5.26522E3,4.933051E3,6.470987E3,1.1488857E4,5.4383477E3,6.0255664E2,8.1944727E2,4.5797607E3,5.916219E3,1.02380444E3,2.0639277E3,9.346196E2,4.6565527E3,5.2286074E3,9.714225E3,5.4513735E3,3.336666E3,3.005426E3,1.0265083E3,1.2421802E3,3.1345457E3,5.1395156E3,2.2639434E3,3.1926265E3,5.4281226E3,6.756022E3,1.5525885E4,4.5583467E3,2.0581218E3,2.9529102E2,4.368164E2,1.1009802E3,5.774907E2,7.3485706E2,1.9391963E3,1.4738384E3,5.581564E3,6.13292E2,1.04456E3,2.6433735E3,3.0160908E3,3.807074E2,1.1590767E3,6.4411357E3,2.925038E3,0E0,0E0,0E0,0E0,0E0,0E0,0E0,0E0,0E0,0E0,0E0,0E0,0E0,0E0,0E0,0E0,0E0,0E0,0E0,0E0,0E0,0E0,0E0,0E0,0E0,0E0,0E0,0E0,0E0,0E0,0E0,0E0,0E0,0E0,0E0,0E0,0E0,0E0,0E0,0E0,0E0,0E0,0E0,0E0,0E0,0E0,0E0,0E0,0E0,0E0,0E0,0E0,0E0,0E0,0E0,0E0,0E0,0E0,0E0,0E0,0E0,0E0,0E0,0E0],"parents":[2147483647,0,0,1,1,2,2,3,3,4,4,5,5,6,6,7,7,8,8,9,9,10,10,11,11,12,12,13,13,14,14,15,15,16,16,17,17,18,18,19,19,20,20,21,21,22,22,23,23,24,24,25,25,26,26,27,27,28,28,29,29,30,30,31,31,32,32,33,33,34,34,35,35,36,36,37,37,38,38,39,39,40,40,41,41,42,42,43,43,44,44,45,45,46,46,47,47,48,48,49,49,50,50,51,51,52,52,53,53,54,54,55,55,56,56,57,57,58,58,59,59,60,60,61,61,62,62],"right_children":[2,4,6,8,10,12,14,16,18,20,22,24,26,28,30,32,34,36,38,40,42,44,46,48,50,52,54,56,58,60,62,64,66,68,70,72,74,76,78,80,82,84,86,88,90,92,94,96,98,100,102,104,106,108,110,112,114,116,118,120,122,124,126,-1,-1,-1,-1,-1,-1,-1,-1,-1,-1,-1,-1,-1,-1,-1,-1,-1,-1,-1,-1,-1,-1,-1,-1,-1,-1,-1,-1,-1,-1,-1,-1,-1,-1,-1,-1,-1,-1,-1,-1,-1,-1,-1,-1,-1,-1,-1,-1,-1,-1,-1,-1,-1,-1,-1,-1,-1,-1,-1,-1,-1,-1,-1,-1],"split_conditions":[1.3E-1,1.094095E2,8.075E1,2.1E1,1.239095E2,2.857E1,2.773E1,1.064095E2,2.4E1,2.785E1,1.4E1,1.2E1,1.254095E2,-7.6625E0,9.79095E1,-1.1625E0,-3.1625E0,2.2E1,-7.1625E0,-9.6625E0,9E0,9E0,7.931E1,7E0,1.019095E2,9.79095E1,-1.6625E0,-1.01625E1,1.394095E2,2E0,1.229095E2,1.019095E2,1.039095E2,-7.1625E0,2.967E1,9.94095E1,2.3E1,2.8E1,1.019095E2,9E0,8.444E1,1.2E1,-2.6625E0,-3.6625E0,1.354095E2,2.5E1,1.4E1,2.833E1,2.67E1,2.757E1,2.593E1,-1.625E-1,2.7E-1,-8.1625E0,2.962E1,2.723E1,1.269095E2,1.224095E2,2.566E1,-3.6625E0,2.3E1,1.4E1,-1.6625E0,1.3716699E-1,2.8351119E-2,-1.3862076E-1,1.7683274E-1,1.8942451E-1,-3.7998132E-2,2.3976003E-1,6.230384E-1,1.5596856E-1,-9.445766E-2,-1.6511673E-1,-5.9813198E-2,8.533514E-2,2.0191024E-1,6.1813924E-2,-8.988326E-2,1.5767914E-1,-6.0636017E-2,-1.4582972E-1,-7.729583E-2,-2.2002839E-2,1.3784099E-1,7.6393825E-3,-1.00212894E-1,7.138112E-2,-9.4975024E-2,2.4226825E-1,-1.8471656E-2,-9.374067E-2,5.149337E-2,6.7007735E-2,2.736733E-3,-1.9456416E-1,-1.1853854E-1,-1.1558987E-1,-2.8298151E-1,-1.5053234E-1,1.2717462E-2,1.2963146E-3,-1.388332E-1,3.3145E-1,7.093266E-2,-8.6304076E-2,-1.9833472E-1,3.962704E-1,-2.7422294E-1,2.8545137E-2,4.2531437E-1,1.7114513E-1,4.074091E-1,4.3942798E-2,2.0176004E-1,-7.110346E-2,-1.2224488E-2,-7.855509E-2,-3.6917394E-1,-1.9607063E-1,8.10377E-2,2.1906948E-1,7.958952E-2,2.7368113E-2,-1.159187E-1,-3.4278598E-2,8.799111E-2],"split_indices":[6,8,5,2,8,4,4,8,2,4,2,2,8,7,8,7,7,2,7,7,3,2,5,2,8,8,7,7,8,2,8,8,8,7,4,8,2,2,8,2,5,2,7,7,8,2,3,4,4,4,4,7,6,7,4,4,8,8,4,7,2,3,7,0,0,0,0,0,0,0,0,0,0,0,0,0,0,0,0,0,0,0,0,0,0,0,0,0,0,0,0,0,0,0,0,0,0,0,0,0,0,0,0,0,0,0,0,0,0,0,0,0,0,0,0,0,0,0,0,0,0,0,0,0,0,0,0],"split_type":[0,0,0,0,0,0,0,0,0,0,0,0,0,0,0,0,0,0,0,0,0,0,0,0,0,0,0,0,0,0,0,0,0,0,0,0,0,0,0,0,0,0,0,0,0,0,0,0,0,0,0,0,0,0,0,0,0,0,0,0,0,0,0,0,0,0,0,0,0,0,0,0,0,0,0,0,0,0,0,0,0,0,0,0,0,0,0,0,0,0,0,0,0,0,0,0,0,0,0,0,0,0,0,0,0,0,0,0,0,0,0,0,0,0,0,0,0,0,0,0,0,0,0,0,0,0,0],"sum_hessian":[2.13192E6,1.355698E6,7.76222E5,4.17911E5,9.37787E5,1.88071E5,5.88151E5,2.81545E5,1.36366E5,4.56886E5,4.80901E5,8.3287E4,1.04784E5,3.38482E5,2.49669E5,2.14235E5,6.731E4,5.1839E4,8.4527E4,2.23682E5,2.33204E5,2.05724E5,2.75177E5,3.2598E4,5.0689E4,6.4743E4,4.0041E4,2.7937E4,3.10545E5,2.4822E4,2.24847E5,1.67416E5,4.6819E4,3.8064E4,2.9246E4,1.8464E4,3.3375E4,3.4895E4,4.9632E4,4.9568E4,1.74114E5,5.2338E4,1.80866E5,1.06976E5,9.8748E4,9.2512E4,1.82665E5,2.1656E4,1.0942E4,1.6226E4,3.4463E4,3.912E3,6.0831E4,6.485E3,3.3556E4,6.391E3,2.1546E4,2.94652E5,1.5893E4,1.783E3,2.3039E4,1.21491E5,1.03356E5,1.02513E5,6.4903E4,3.5101E4,1.1718E4,2.0108E4,1.7956E4,2.7035E4,2.211E3,6.865E3,1.1599E4,1.7311E4,1.6064E4,2.161E4,1.3285E4,2.2094E4,2.7538E4,1.3242E4,3.6326E4,8.2021E4,9.2093E4,1.6359E4,3.5979E4,1.1456E5,6.6306E4,7.6085E4,3.0891E4,6.9578E4,2.917E4,6.4704E4,2.7808E4,1.03605E5,7.906E4,1.502E4,6.636E3,1.655E3,9.287E3,5.768E3,1.0458E4,2.889E3,3.1574E4,2.071E3,1.841E3,3.9313E4,2.1518E4,3.09E2,6.176E3,2.9986E4,3.57E3,5.168E3,1.223E3,1.6667E4,4.879E3,1.85855E5,1.08797E5,1.1421E4,4.472E3,8.93E2,8.9E2,1.4543E4,8.496E3,7.6862E4,4.4629E4,2.2512E4,8.0844E4],"tree_param":{"num_deleted":"0","num_feature":"9","num_nodes":"127","size_leaf_vector":"1"}},{"base_weights":[-1.1904441E-6,2.396636E-1,-1.6619446E-2,1.6463317E-1,5.0897014E-1,2.2096911E-2,-1.1908988E-1,1.9316358E-2,2.9276666E-1,8.637634E-1,1.7395139E-1,-9.336648E-2,6.696074E-2,-2.7399847E-1,-5.898434E-2,1.4279434E-1,-1.9496784E-1,6.31386E-1,1.9626923E-1,1.3648142E0,2.9424816E-1,-2.5182858E-1,2.9904705E-1,3.3606659E-3,-1.8277247E-1,4.7074184E-2,5.7493216E-1,-3.708041E-1,-8.050155E-2,1.772735E-2,-1.9401169E-1,2.7184784E-1,-1.104615E-1,-4.281831E-1,1.9727533E-1,2.4817495E-1,1.0654877E0,2.2752945E-1,-2.011918E-1,1.5774364E0,3.208322E-1,2.5435236E-1,1.2054051E0,-7.9887384E-1,-3.916924E-2,7.231395E-1,8.801951E-3,-2.4581414E-1,9.2185184E-2,-2.4598533E-1,-2.1452237E-2,-1.2697841E-1,8.771339E-2,8.1747E-1,3.199199E-1,-5.357133E-1,-2.5373712E-1,-5.703908E-1,5.9698444E-2,-4.6839565E-2,2.022404E-1,-3.8327953E-1,-6.0779024E-2,-1.299208E-1,1.04199536E-1,5.4328654E-2,-1.5589502E-1,-1.7901707E-1,-4.4452548E-2,1.7312533E-1,9.335157E-3,4.3427184E-2,3.615588E-1,2.2619915E-1,5.1488376E-1,4.2417146E-2,1.863831E-1,9.96603E-2,-1.2414666E-1,5.514832E-1,3.4898335E-1,-4.043552E-2,1.3761932E-1,-1.7041007E-2,1.0454657E-1,4.962571E-1,2.8239557E-1,-2.4766393E-1,1.8019909E-1,-3.0812083E-2,1.1395209E-1,1.0758931E-1,4.3198076E-1,-1.0188869E-1,4.8173796E-2,-9.651249E-2,1.8064979E-1,-3.705838E-2,6.914727E-2,6.673922E-2,-8.342411E-2,-3.2305315E-2,1.9595268E-1,-5.001888E-2,1.1203779E-2,3.8051758E-2,-1.5430397E-2,1.1778667E-1,2.837667E-1,1.403404E-1,-1.792109E-2,-5.5740062E-2,-1.7449805E-1,6.5655075E-2,-1.1995837E-1,1.4244147E-1,-2.2433503E-1,-5.7686154E-2,1.3438469E-1,1.0471924E-1,-2.2710955E-2,-7.694123E-3,9.454687E-2,-1.7858857E-1,-4.94476E-2,-4.1023448E-2,8.452144E-2],"categories":[],"categories_nodes":[],"categories_segments":[],"categories_sizes":[],"default_left":[0,0,0,0,0,0,0,0,0,0,0,0,0,0,0,0,0,0,0,0,0,0,0,0,0,0,0,0,0,0,0,0,0,0,0,0,0,0,0,0,0,0,0,0,0,0,0,0,0,0,0,0,0,0,0,0,0,0,0,0,0,0,0,0,0,0,0,0,0,0,0,0,0,0,0,0,0,0,0,0,0,0,0,0,0,0,0,0,0,0,0,0,0,0,0,0,0,0,0,0,0,0,0,0,0,0,0,0,0,0,0,0,0,0,0,0,0,0,0,0,0,0,0,0,0,0,0],"id":9,"left_children":[1,3,5,7,9,11,13,15,17,19,21,23,25,27,29,31,33,35,37,39,41,43,45,47,49,51,53,55,57,59,61,63,65,67,69,71,73,75,77,79,81,83,85,87,89,91,93,95,97,99,101,103,105,107,109,111,113,115,117,119,121,123,125,-1,-1,-1,-1,-1,-1,-1,-1,-1,-1,-1,-1,-1,-1,-1,-1,-1,-1,-1,-1,-1,-1,-1,-1,-1,-1,-1,-1,-1,-1,-1,-1,-1,-1,-1,-1,-1,-1,-1,-1,-1,-1,-1,-1,-1,-1,-1,-1,-1,-1,-1,-1,-1,-1,-1,-1,-1,-1,-1,-1,-1,-1,-1,-1],"loss_changes":[8.491043E3,2.7932393E3,7.9094976E3,2.0131836E3,3.5802222E3,7.4955146E3,5.0903184E3,1.3405659E3,1.8773354E3,4.1740713E3,8.253358E2,3.501588E3,1.0526777E4,2.8626816E3,4.0799023E3,1.0505776E3,1.6944232E3,2.1194004E3,5.5562964E2,1.7268955E3,2.4862744E2,4.093491E2,1.4741287E3,4.3046147E3,2.1456948E3,7.093276E3,2.427912E3,1.9664121E3,3.5003672E3,2.9924507E3,3.598419E3,1.1331489E3,1.294638E3,5.481013E2,4.358716E2,6.69773E2,1.2097275E3,1.4059756E3,3.699855E2,6.962705E2,8.287059E1,1.9222742E2,3.245761E1,3.7265137E1,6.752807E1,1.270864E3,3.761121E2,3.2895303E3,4.277648E3,2.2729775E3,3.4462756E3,1.2399536E3,4.4261553E3,1.0974004E3,1.0745719E3,6.798047E2,4.1141914E3,2.1029045E3,3.8767405E3,2.1262993E3,1.6754763E3,2.7303525E3,2.179153E3,0E0,0E0,0E0,0E0,0E0,0E0,0E0,0E0,0E0,0E0,0E0,0E0,0E0,0E0,0E0,0E0,0E0,0E0,0E0,0E0,0E0,0E0,0E0,0E0,0E0,0E0,0E0,0E0,0E0,0E0,0E0,0E0,0E0,0E0,0E0,0E0,0E0,0E0,0E0,0E0,0E0,0E0,0E0,0E0,0E0,0E0,0E0,0E0,0E0,0E0,0E0,0E0,0E0,0E0,0E0,0E0,0E0,0E0,0E0,0E0,0E0,0E0,0E0,0E0],"parents":[2147483647,0,0,1,1,2,2,3,3,4,4,5,5,6,6,7,7,8,8,9,9,10,10,11,11,12,12,13,13,14,14,15,15,16,16,17,17,18,18,19,19,20,20,21,21,22,22,23,23,24,24,25,25,26,26,27,27,28,28,29,29,30,30,31,31,32,32,33,33,34,34,35,35,36,36,37,37,38,38,39,39,40,40,41,41,42,42,43,43,44,44,45,45,46,46,47,47,48,48,49,49,50,50,51,51,52,52,53,53,54,54,55,55,56,56,57,57,58,58,59,59,60,60,61,61,62,62],"right_children":[2,4,6,8,10,12,14,16,18,20,22,24,26,28,30,32,34,36,38,40,42,44,46,48,50,52,54,56,58,60,62,64,66,68,70,72,74,76,78,80,82,84,86,88,90,92,94,96,98,100,102,104,106,108,110,112,114,116,118,120,122,124,126,-1,-1,-1,-1,-1,-1,-1,-1,-1,-1,-1,-1,-1,-1,-1,-1,-1,-1,-1,-1,-1,-1,-1,-1,-1,-1,-1,-1,-1,-1,-1,-1,-1,-1,-1,-1,-1,-1,-1,-1,-1,-1,-1,-1,-1,-1,-1,-1,-1,-1,-1,-1,-1,-1,-1,-1,-1,-1,-1,-1,-1,-1,-1,-1],"split_conditions":[9.74095E1,2.836E1,1.9E-1,1.5E1,-1.1625E0,7.756E1,8.194E1,-1.6625E0,1.8E1,1.9E1,5E0,1E-2,2.919E1,1.294095E2,1.5E1,1.1E1,8.269E1,2.742E1,3E1,1E1,2.912E1,7.45E1,2.1E1,-8.1625E0,2.935E1,2.622E1,1.5E1,1.3E1,-1.6625E0,2.81E1,1.9E1,2E0,-5.6625E0,1.2E1,9.54095E1,6.2E-1,1.7E1,2.8E1,6E0,8E0,7E0,-4.1625E0,7.806E1,4.3375E0,3.8375E0,1.5E1,7.438E1,1.319095E2,7.181E1,-9.1625E0,3.3375E0,1.339095E2,-1.1625E0,1E1,2E1,7.331E1,1.9E1,1.319095E2,2.885E1,-7.1625E0,9E0,1.179095E2,2.826E1,-1.299208E-1,1.04199536E-1,5.4328654E-2,-1.5589502E-1,-1.7901707E-1,-4.4452548E-2,1.7312533E-1,9.335157E-3,4.3427184E-2,3.615588E-1,2.2619915E-1,5.1488376E-1,4.2417146E-2,1.863831E-1,9.96603E-2,-1.2414666E-1,5.514832E-1,3.4898335E-1,-4.043552E-2,1.3761932E-1,-1.7041007E-2,1.0454657E-1,4.962571E-1,2.8239557E-1,-2.4766393E-1,1.8019909E-1,-3.0812083E-2,1.1395209E-1,1.0758931E-1,4.3198076E-1,-1.0188869E-1,4.8173796E-2,-9.651249E-2,1.8064979E-1,-3.705838E-2,6.914727E-2,6.673922E-2,-8.342411E-2,-3.2305315E-2,1.9595268E-1,-5.001888E-2,1.1203779E-2,3.8051758E-2,-1.5430397E-2,1.1778667E-1,2.837667E-1,1.403404E-1,-1.792109E-2,-5.5740062E-2,-1.7449805E-1,6.5655075E-2,-1.1995837E-1,1.4244147E-1,-2.2433503E-1,-5.7686154E-2,1.3438469E-1,1.0471924E-1,-2.2710955E-2,-7.694123E-3,9.454687E-2,-1.7858857E-1,-4.94476E-2,-4.1023448E-2,8.452144E-2],"split_indices":[8,4,6,2,7,5,5,7,2,2,2,6,4,8,3,2,5,4,2,1,4,5,2,7,4,4,3,2,7,4,3,2,7,2,8,6,2,2,3,2,3,7,5,7,7,2,5,8,5,7,7,8,7,2,2,5,2,8,4,7,2,8,4,0,0,0,0,0,0,0,0,0,0,0,0,0,0,0,0,0,0,0,0,0,0,0,0,0,0,0,0,0,0,0,0,0,0,0,0,0,0,0,0,0,0,0,0,0,0,0,0,0,0,0,0,0,0,0,0,0,0,0,0,0,0,0,0],"split_type":[0,0,0,0,0,0,0,0,0,0,0,0,0,0,0,0,0,0,0,0,0,0,0,0,0,0,0,0,0,0,0,0,0,0,0,0,0,0,0,0,0,0,0,0,0,0,0,0,0,0,0,0,0,0,0,0,0,0,0,0,0,0,0,0,0,0,0,0,0,0,0,0,0,0,0,0,0,0,0,0,0,0,0,0,0,0,0,0,0,0,0,0,0,0,0,0,0,0,0,0,0,0,0,0,0,0,0,0,0,0,0,0,0,0,0,0,0,0,0,0,0,0,0,0,0,0,0],"sum_hessian":[2.13192E6,1.3824E5,1.99368E6,1.08119E5,3.0121E4,1.446972E6,5.46708E5,5.0663E4,5.7456E4,1.4628E4,1.5493E4,4.04901E5,1.042071E6,1.52827E5,3.93881E5,3.2142E4,1.8521E4,1.2741E4,4.4715E4,7.781E3,6.847E3,3.518E3,1.1975E4,1.94488E5,2.10413E5,1.002813E6,3.9258E4,1.01864E5,5.0963E4,2.51181E5,1.427E5,2.1292E4,1.085E4,1.1615E4,6.906E3,6.768E3,5.973E3,4.1455E4,3.26E3,6.464E3,1.317E3,6.561E3,2.86E2,9.84E2,2.534E3,4.865E3,7.11E3,5.111E4,1.43378E5,1.51175E5,5.9238E4,1.89823E5,8.1299E5,2.012E4,1.9138E4,4.2289E4,5.9575E4,1.1339E4,3.9624E4,1.8607E5,6.5111E4,5.8952E4,8.3748E4,2.059E3,1.9233E4,6.336E3,4.514E3,7.25E3,4.365E3,2.101E3,4.805E3,6.109E3,6.59E2,4.041E3,1.932E3,3.4015E4,7.44E3,9.29E2,2.331E3,3.964E3,2.5E3,3.06E2,1.011E3,1.524E3,5.037E3,1.04E2,1.82E2,9.66E2,1.8E1,2.201E3,3.33E2,3.226E3,1.639E3,2.157E3,4.953E3,4.6912E4,4.198E3,5.6014E4,8.7364E4,9.693E3,1.41482E5,5.2525E4,6.713E3,1.52848E5,3.6975E4,6.34563E5,1.78427E5,4.671E3,1.5449E4,1.3773E4,5.365E3,4.909E3,3.738E4,1.407E4,4.5505E4,1.645E3,9.694E3,2.4029E4,1.5595E4,1.2643E4,1.73427E5,2.1573E4,4.3538E4,2.9916E4,2.9036E4,6.8546E4,1.5202E4],"tree_param":{"num_deleted":"0","num_feature":"9","num_nodes":"127","size_leaf_vector":"1"}},{"base_weights":[1.083554E-6,1.4738865E-2,-2.0632651E-1,6.242096E-2,-7.108887E-2,-2.5116587E-1,3.4360062E-2,1.3486402E-1,-2.3193654E-2,-1.7162697E-1,-4.063227E-3,-4.0333312E-2,-2.972846E-1,5.59011E-1,-9.158022E-2,2.7996626E-1,6.1759744E-2,1.2379046E-1,-6.5189295E-2,-1.9941095E-1,5.064409E-2,1.5412524E-1,-4.449528E-2,-2.5099176E-1,1.7032889E-1,-2.1101649E-1,-3.3177656E-1,8.002182E-1,1.5530179E-3,-4.359499E-1,2.263121E-1,1.7199668E-1,5.299177E-1,-1.0199847E-1,1.7911737E-1,4.7894564E-2,5.234873E-1,-2.3249779E-2,-3.3281782E-1,6.0900625E-2,-2.2035572E-1,2.6933715E-1,-2.2261893E-2,-3.0755833E-2,2.8997555E-1,-1.16525054E-1,2.0810146E-2,-4.0877646E-1,-9.316037E-2,6.505557E-1,-2.0322663E-1,3.1333944E-1,-4.6128058E-1,-5.279015E-1,-2.2806911E-1,4.690442E-1,9.707286E-1,-5.5262417E-1,4.5475832E-1,1.1873211E-1,-6.208337E-1,-2.9196212E-1,7.4453795E-1,1.0045707E-1,-6.0628634E-4,2.4336337E-1,9.333043E-2,-5.8030073E-2,1.2239921E-2,-4.3963164E-2,6.545553E-2,7.283217E-2,-4.5594737E-2,1.9030155E-1,-4.2482782E-2,-3.4426205E-2,6.046149E-2,-2.7960277E-1,-3.992147E-2,1.4280277E-1,-2.3247853E-2,-7.7566296E-2,-1.110018E-2,-1.2108839E-2,1.6392818E-1,-1.186991E-2,1.3031454E-1,-5.9349E-2,1.2128263E-1,-9.373332E-3,1.12504564E-1,-5.2394032E-2,1.9060008E-2,-3.4196097E-2,4.282068E-2,-1.6016433E-1,2.0001965E-2,-2.538027E-1,-1.0722068E-2,1.1908487E-1,3.0156624E-1,-1.1493922E-1,1.4607358E-2,1.4327694E-1,-7.844656E-2,-3.7071872E-1,-8.91596E-2,-3.864046E-1,-9.501063E-2,2.4566958E-2,-9.536454E-2,2.647348E-2,2.041974E-1,2.2617446E-1,3.3623546E-1,-2.8195095E-1,-1.0002468E-1,-4.0432483E-2,2.175853E-1,2.6118237E-1,-2.2216971E-1,-5.9255194E-2,-2.882465E-1,5.2455906E-2,-2.0760001E-1,1.4262111E-1,4.049841E-1],"categories":[],"categories_nodes":[],"categories_segments":[],"categories_sizes":[],"default_left":[0,0,0,0,0,0,0,0,0,0,0,0,0,0,0,0,0,0,0,0,0,0,0,0,0,0,0,0,0,0,0,0,0,0,0,0,0,0,0,0,0,0,0,0,0,0,0,0,0,0,0,0,0,0,0,0,0,0,0,0,0,0,0,0,0,0,0,0,0,0,0,0,0,0,0,0,0,0,0,0,0,0,0,0,0,0,0,0,0,0,0,0,0,0,0,0,0,0,0,0,0,0,0,0,0,0,0,0,0,0,0,0,0,0,0,0,0,0,0,0,0,0,0,0,0,0,0],"id":10,"left_children":[1,3,5,7,9,11,13,15,17,19,21,23,25,27,29,31,33,35,37,39,41,43,45,47,49,51,53,55,57,59,61,63,65,67,69,71,73,75,77,79,81,83,85,87,89,91,93,95,97,99,101,103,105,107,109,111,113,115,117,119,121,123,125,-1,-1,-1,-1,-1,-1,-1,-1,-1,-1,-1,-1,-1,-1,-1,-1,-1,-1,-1,-1,-1,-1,-1,-1,-1,-1,-1,-1,-1,-1,-1,-1,-1,-1,-1,-1,-1,-1,-1,-1,-1,-1,-1,-1,-1,-1,-1,-1,-1,-1,-1,-1,-1,-1,-1,-1,-1,-1,-1,-1,-1,-1,-1,-1],"loss_changes":[6.482772E3,8.143125E3,1.533898E3,7.9335474E3,4.7887466E3,1.1649297E3,1.4749042E3,7.3497207E3,3.6189277E3,1.75546E3,2.7271162E3,9.5438666E2,2.9244238E2,5.8101294E2,1.9707128E3,6.264408E3,8.854779E3,3.9522158E3,5.118177E3,1.3776289E3,5.0359827E2,2.1800159E3,1.5974071E3,2.67748E2,1.9291272E3,3.6851436E3,1.4282285E3,1.6985425E2,3.2826108E2,8.8622327E2,2.5144238E3,4.5942026E3,4.3097754E3,2.5114644E3,3.414832E3,4.265075E3,1.5329429E3,8.108737E3,7.393733E3,1.0810419E3,1.6379033E3,6.7770154E2,1.872071E2,2.6722515E3,1.3667349E3,1.6899585E3,2.9272734E3,3.1986456E2,2.3241034E2,4.227932E2,2.7416565E2,8.567584E2,2.4151628E3,3.8988394E3,1.2788318E3,8.2698044E1,6.3898193E1,4.9596222E1,1.147668E2,1.3968348E3,9.325718E2,8.7426843E2,7.62063E2,0E0,0E0,0E0,0E0,0E0,0E0,0E0,0E0,0E0,0E0,0E0,0E0,0E0,0E0,0E0,0E0,0E0,0E0,0E0,0E0,0E0,0E0,0E0,0E0,0E0,0E0,0E0,0E0,0E0,0E0,0E0,0E0,0E0,0E0,0E0,0E0,0E0,0E0,0E0,0E0,0E0,0E0,0E0,0E0,0E0,0E0,0E0,0E0,0E0,0E0,0E0,0E0,0E0,0E0,0E0,0E0,0E0,0E0,0E0,0E0,0E0,0E0,0E0,0E0],"parents":[2147483647,0,0,1,1,2,2,3,3,4,4,5,5,6,6,7,7,8,8,9,9,10,10,11,11,12,12,13,13,14,14,15,15,16,16,17,17,18,18,19,19,20,20,21,21,22,22,23,23,24,24,25,25,26,26,27,27,28,28,29,29,30,30,31,31,32,32,33,33,34,34,35,35,36,36,37,37,38,38,39,39,40,40,41,41,42,42,43,43,44,44,45,45,46,46,47,47,48,48,49,49,50,50,51,51,52,52,53,53,54,54,55,55,56,56,57,57,58,58,59,59,60,60,61,61,62,62],"right_children":[2,4,6,8,10,12,14,16,18,20,22,24,26,28,30,32,34,36,38,40,42,44,46,48,50,52,54,56,58,60,62,64,66,68,70,72,74,76,78,80,82,84,86,88,90,92,94,96,98,100,102,104,106,108,110,112,114,116,118,120,122,124,126,-1,-1,-1,-1,-1,-1,-1,-1,-1,-1,-1,-1,-1,-1,-1,-1,-1,-1,-1,-1,-1,-1,-1,-1,-1,-1,-1,-1,-1,-1,-1,-1,-1,-1,-1,-1,-1,-1,-1,-1,-1,-1,-1,-1,-1,-1,-1,-1,-1,-1,-1,-1,-1,-1,-1,-1,-1,-1,-1,-1,-1,-1,-1,-1],"split_conditions":[1E1,2.1E1,1.339095E2,1.3E1,2.5E1,1.014095E2,-8.1625E0,1.099095E2,-7.6625E0,2.8375E0,2E-2,2E0,-6.6625E0,8.25E1,-2.1625E0,2.81E1,1.229095E2,1.339095E2,1.349095E2,9.79095E1,2.2E1,2.749E1,8.269E1,-3.1625E0,-4.1625E0,1.119095E2,1.124095E2,-1.01625E1,-9.6625E0,-6.6625E0,2E0,-5.1625E0,-6.625E-1,2.791E1,2.54E1,1.144095E2,-8.1625E0,1.229095E2,-4.6625E0,2.2E1,1.339095E2,2.841E1,1.394095E2,1.349095E2,7.331E1,1.294095E2,2.733E1,1.9E1,2E-2,1.4E1,1.4E1,-7.6625E0,2.737E1,-4.1625E0,-4.1625E0,2E0,2E0,-1.06625E1,2.672E1,1.379095E2,2.566E1,8.375E-1,2.9E1,1.0045707E-1,-6.0628634E-4,2.4336337E-1,9.333043E-2,-5.8030073E-2,1.2239921E-2,-4.3963164E-2,6.545553E-2,7.283217E-2,-4.5594737E-2,1.9030155E-1,-4.2482782E-2,-3.4426205E-2,6.046149E-2,-2.7960277E-1,-3.992147E-2,1.4280277E-1,-2.3247853E-2,-7.7566296E-2,-1.110018E-2,-1.2108839E-2,1.6392818E-1,-1.186991E-2,1.3031454E-1,-5.9349E-2,1.2128263E-1,-9.373332E-3,1.12504564E-1,-5.2394032E-2,1.9060008E-2,-3.4196097E-2,4.282068E-2,-1.6016433E-1,2.0001965E-2,-2.538027E-1,-1.0722068E-2,1.1908487E-1,3.0156624E-1,-1.1493922E-1,1.4607358E-2,1.4327694E-1,-7.844656E-2,-3.7071872E-1,-8.91596E-2,-3.864046E-1,-9.501063E-2,2.4566958E-2,-9.536454E-2,2.647348E-2,2.041974E-1,2.2617446E-1,3.3623546E-1,-2.8195095E-1,-1.0002468E-1,-4.0432483E-2,2.175853E-1,2.6118237E-1,-2.2216971E-1,-5.9255194E-2,-2.882465E-1,5.2455906E-2,-2.0760001E-1,1.4262111E-1,4.049841E-1],"split_indices":[1,2,8,3,2,8,7,8,7,7,6,2,7,5,7,4,8,8,8,8,2,4,5,7,7,8,8,7,7,7,2,7,7,4,4,8,7,8,7,2,8,4,8,8,5,8,4,3,6,3,3,7,4,7,7,2,2,7,4,8,4,7,4,0,0,0,0,0,0,0,0,0,0,0,0,0,0,0,0,0,0,0,0,0,0,0,0,0,0,0,0,0,0,0,0,0,0,0,0,0,0,0,0,0,0,0,0,0,0,0,0,0,0,0,0,0,0,0,0,0,0,0,0,0,0,0,0],"split_type":[0,0,0,0,0,0,0,0,0,0,0,0,0,0,0,0,0,0,0,0,0,0,0,0,0,0,0,0,0,0,0,0,0,0,0,0,0,0,0,0,0,0,0,0,0,0,0,0,0,0,0,0,0,0,0,0,0,0,0,0,0,0,0,0,0,0,0,0,0,0,0,0,0,0,0,0,0,0,0,0,0,0,0,0,0,0,0,0,0,0,0,0,0,0,0,0,0,0,0,0,0,0,0,0,0,0,0,0,0,0,0,0,0,0,0,0,0,0,0,0,0,0,0,0,0,0,0],"sum_hessian":[2.13192E6,1.989792E6,1.42128E5,1.279152E6,7.1064E5,1.19808E5,2.232E4,6.92874E5,5.86278E5,2.84256E5,4.26384E5,2.1504E4,9.8304E4,4.32E3,1.8E4,2.32128E5,4.60746E5,1.30284E5,4.55994E5,2.52672E5,3.1584E4,8.6796E4,3.39588E5,1.0752E4,1.0752E4,2.808E4,7.0224E4,3.015E3,1.305E3,8.64E3,9.36E3,1.62106E5,7.0022E4,1.92348E5,2.68398E5,1.09494E5,2.079E4,3.94218E5,6.1776E4,1.8816E4,2.33856E5,7.896E3,2.3688E4,3.6764E4,5.0032E4,1.6148E5,1.78108E5,5.376E3,5.376E3,4.704E3,6.048E3,9.072E3,1.9008E4,2.4288E4,4.5936E4,1.026E3,1.989E3,5.87E2,7.18E2,2.16E3,6.48E3,4.68E3,4.68E3,8.3737E4,7.8369E4,3.0636E4,3.9386E4,1.17263E5,7.5085E4,2.8749E4,2.39649E5,5.544E4,5.4054E4,1.782E4,2.97E3,2.8017E5,1.14048E5,1.5444E4,4.6332E4,4.704E3,1.4112E4,1.93536E5,4.032E4,3.729E3,4.167E3,2.2824E4,8.64E2,2.6563E4,1.0201E4,1.0473E4,3.9559E4,1.22075E5,3.9405E4,8.4589E4,9.3519E4,4.256E3,1.12E3,3.8E2,4.996E3,2.744E3,1.96E3,3.528E3,2.52E3,7.056E3,2.016E3,3.322E3,1.5686E4,5.28E3,1.9008E4,1.032E4,3.5616E4,3.67E2,6.59E2,8.16E2,1.173E3,2.11E2,3.76E2,2.26E2,4.92E2,1.152E3,1.008E3,2.887E3,3.593E3,2.16E3,2.52E3,3.241E3,1.439E3],"tree_param":{"num_deleted":"0","num_feature":"9","num_nodes":"127","size_leaf_vector":"1"}},{"base_weights":[9.5127757E-7,6.862716E-2,-3.292319E-2,1.1910015E-2,2.0096646E-1,-1.1978808E-1,4.041165E-2,1.2469851E-1,-1.529345E-1,1.229422E-1,4.8945707E-1,1.2803146E-1,-1.4579585E-1,-2.4818912E-1,6.0315464E-2,6.556511E-2,3.9997795E-1,1.3605468E-1,-2.209324E-1,3.8270786E-1,-2.023324E-2,-2.3794027E-1,6.2450606E-1,4.503052E-2,7.483879E-1,-3.2944113E-1,-9.70101E-2,-7.1140593E-1,1.89304E-1,2.2764885E-1,-3.430902E-3,1.5118845E-1,-1.3425066E-2,5.8040005E-1,-5.08309E-1,2.2784742E-2,5.794086E-1,-2.6935703E-1,1.4224735E-1,1.393211E-1,6.669966E-1,-5.3878593E-1,1.5549247E-1,-3.6403477E-1,2.5052157E-1,7.3419976E-1,1.09143734E-1,2.0611644E-1,-2.3117553E-1,8.740826E-1,7.372973E-2,-4.0352236E-2,-5.9925264E-1,4.3166086E-2,-1.8986775E-1,-1.1603955E0,-1.9821844E-1,3.0861494E-1,-5.860821E-1,-2.403758E-1,2.7152723E-1,1.3154268E-1,-1.4634407E-1,-7.451891E-2,5.7627782E-2,4.295148E-2,-1.836323E-2,2.5198245E-1,7.841879E-2,-3.3706832E-1,-1.2119622E-1,-8.5950315E-2,3.8919274E-2,9.3327016E-2,2.7357465E-1,-2.6570125E-2,-1.22135065E-1,-1.9894406E-1,8.661459E-2,-9.71272E-2,8.169306E-2,1.7039658E-1,3.995194E-1,-2.5393716E-1,1.2809426E-3,8.7659E-2,-2.6672885E-2,-1.6060829E-1,1.0555727E-2,-9.5665306E-2,1.081093E-1,1.5449305E-1,2.8054312E-1,2.6818871E-1,-1.058767E-1,3.582519E-2,2.6636934E-1,-1.8940601E-1,4.454661E-2,1.890035E-1,3.8022068E-1,2.457408E-1,-1.9886494E-1,3.369686E-2,-1.0370786E-1,-2.6117086E-1,-1.3907316E-1,-4.45569E-2,7.168989E-2,-1.00004695E-1,8.710235E-3,-4.344391E-1,-1.3591632E-1,4.032317E-1,-2.4457113E-1,1.6461644E-1,2.0544289E-2,-2.280076E-1,-1.9193139E-2,-2.1468726E-1,7.047012E-2,9.2199765E-2,-7.965976E-2,1.0377948E-1,-2.4854155E-2,-1.2373197E-1,1.596877E-2],"categories":[],"categories_nodes":[],"categories_segments":[],"categories_sizes":[],"default_left":[0,0,0,0,0,0,0,0,0,0,0,0,0,0,0,0,0,0,0,0,0,0,0,0,0,0,0,0,0,0,0,0,0,0,0,0,0,0,0,0,0,0,0,0,0,0,0,0,0,0,0,0,0,0,0,0,0,0,0,0,0,0,0,0,0,0,0,0,0,0,0,0,0,0,0,0,0,0,0,0,0,0,0,0,0,0,0,0,0,0,0,0,0,0,0,0,0,0,0,0,0,0,0,0,0,0,0,0,0,0,0,0,0,0,0,0,0,0,0,0,0,0,0,0,0,0,0],"id":11,"left_children":[1,3,5,7,9,11,13,15,17,19,21,23,25,27,29,31,33,35,37,39,41,43,45,47,49,51,53,55,57,59,61,63,65,67,69,71,73,75,77,79,81,83,85,87,89,91,93,95,97,99,101,103,105,107,109,111,113,115,117,119,121,123,125,-1,-1,-1,-1,-1,-1,-1,-1,-1,-1,-1,-1,-1,-1,-1,-1,-1,-1,-1,-1,-1,-1,-1,-1,-1,-1,-1,-1,-1,-1,-1,-1,-1,-1,-1,-1,-1,-1,-1,-1,-1,-1,-1,-1,-1,-1,-1,-1,-1,-1,-1,-1,-1,-1,-1,-1,-1,-1,-1,-1,-1,-1,-1,-1],"loss_changes":[4.81699E3,5.188088E3,9.177718E3,8.995865E3,4.6674834E3,4.250785E3,4.487434E3,4.676394E3,3.8625825E3,6.0704595E3,4.336504E3,3.2253618E3,5.347588E3,1.0214108E4,7.79538E3,1.5994319E3,8.324981E3,1.8802242E3,2.7984746E3,4.0127725E3,9.588415E3,4.2587927E2,2.104663E3,2.4582808E3,6.2678516E2,9.77183E3,6.138571E3,5.640579E3,2.3981858E3,4.140175E3,1.0208044E4,1.854793E3,9.2048004E2,3.508704E3,5.3991187E2,9.864905E2,6.794663E2,3.4967344E3,2.2086033E3,1.9244155E3,1.7597695E3,4.449915E3,2.6258464E3,3.7585974E2,8.8866394E1,1.3517676E3,2.3701553E3,2.0627104E3,3.0923896E3,5.9736426E2,6.385691E2,2.8195364E3,2.3849902E3,7.0532295E3,8.909949E3,2.656791E3,1.0873614E4,1.2952434E3,3.1390442E2,3.9035005E3,3.5445E3,1.25093125E4,1.3650344E4,0E0,0E0,0E0,0E0,0E0,0E0,0E0,0E0,0E0,0E0,0E0,0E0,0E0,0E0,0E0,0E0,0E0,0E0,0E0,0E0,0E0,0E0,0E0,0E0,0E0,0E0,0E0,0E0,0E0,0E0,0E0,0E0,0E0,0E0,0E0,0E0,0E0,0E0,0E0,0E0,0E0,0E0,0E0,0E0,0E0,0E0,0E0,0E0,0E0,0E0,0E0,0E0,0E0,0E0,0E0,0E0,0E0,0E0,0E0,0E0,0E0,0E0,0E0,0E0],"parents":[2147483647,0,0,1,1,2,2,3,3,4,4,5,5,6,6,7,7,8,8,9,9,10,10,11,11,12,12,13,13,14,14,15,15,16,16,17,17,18,18,19,19,20,20,21,21,22,22,23,23,24,24,25,25,26,26,27,27,28,28,29,29,30,30,31,31,32,32,33,33,34,34,35,35,36,36,37,37,38,38,39,39,40,40,41,41,42,42,43,43,44,44,45,45,46,46,47,47,48,48,49,49,50,50,51,51,52,52,53,53,54,54,55,55,56,56,57,57,58,58,59,59,60,60,61,61,62,62],"right_children":[2,4,6,8,10,12,14,16,18,20,22,24,26,28,30,32,34,36,38,40,42,44,46,48,50,52,54,56,58,60,62,64,66,68,70,72,74,76,78,80,82,84,86,88,90,92,94,96,98,100,102,104,106,108,110,112,114,116,118,120,122,124,126,-1,-1,-1,-1,-1,-1,-1,-1,-1,-1,-1,-1,-1,-1,-1,-1,-1,-1,-1,-1,-1,-1,-1,-1,-1,-1,-1,-1,-1,-1,-1,-1,-1,-1,-1,-1,-1,-1,-1,-1,-1,-1,-1,-1,-1,-1,-1,-1,-1,-1,-1,-1,-1,-1,-1,-1,-1,-1,-1,-1,-1,-1,-1,-1],"split_conditions":[1.094095E2,1.049095E2,1.239095E2,-1.6625E0,2.902E1,-9.6625E0,-1.01625E1,2.815E1,9.64095E1,-6.6625E0,-3.6625E0,2.805E1,-6.6625E0,1.324095E2,-6.1625E0,1.1E1,1.024095E2,8.312E1,1.039095E2,2.664E1,-4.1625E0,1.079095E2,2.2E1,1.9E1,3E1,1.164095E2,-2.1625E0,1.7E1,2.7E1,1.254095E2,1.329095E2,4E0,9E0,1.9E1,6.45E1,2.785E1,1.5E1,2.712E1,-6.625E-1,7.944E1,2.9E1,1.079095E2,2.2E1,-4.6625E0,-6.6625E0,1.3E1,-6.625E-1,6E-2,2.4E1,2.8E1,1.174095E2,-7.6625E0,1.1E1,2.806E1,1.179095E2,2.741E1,2.1E1,1.2E1,3E1,-8.1625E0,1.404095E2,1.6E1,-1.6625E0,-7.451891E-2,5.7627782E-2,4.295148E-2,-1.836323E-2,2.5198245E-1,7.841879E-2,-3.3706832E-1,-1.2119622E-1,-8.5950315E-2,3.8919274E-2,9.3327016E-2,2.7357465E-1,-2.6570125E-2,-1.22135065E-1,-1.9894406E-1,8.661459E-2,-9.71272E-2,8.169306E-2,1.7039658E-1,3.995194E-1,-2.5393716E-1,1.2809426E-3,8.7659E-2,-2.6672885E-2,-1.6060829E-1,1.0555727E-2,-9.5665306E-2,1.081093E-1,1.5449305E-1,2.8054312E-1,2.6818871E-1,-1.058767E-1,3.582519E-2,2.6636934E-1,-1.8940601E-1,4.454661E-2,1.890035E-1,3.8022068E-1,2.457408E-1,-1.9886494E-1,3.369686E-2,-1.0370786E-1,-2.6117086E-1,-1.3907316E-1,-4.45569E-2,7.168989E-2,-1.00004695E-1,8.710235E-3,-4.344391E-1,-1.3591632E-1,4.032317E-1,-2.4457113E-1,1.6461644E-1,2.0544289E-2,-2.280076E-1,-1.9193139E-2,-2.1468726E-1,7.047012E-2,9.2199765E-2,-7.965976E-2,1.0377948E-1,-2.4854155E-2,-1.2373197E-1,1.596877E-2],"split_indices":[8,8,8,7,4,7,7,4,8,7,7,4,7,8,7,3,8,5,8,4,7,8,2,2,2,8,7,2,2,8,8,2,2,2,5,4,2,4,7,5,2,8,2,7,7,2,7,6,2,2,8,7,2,4,8,4,2,3,2,7,8,2,7,0,0,0,0,0,0,0,0,0,0,0,0,0,0,0,0,0,0,0,0,0,0,0,0,0,0,0,0,0,0,0,0,0,0,0,0,0,0,0,0,0,0,0,0,0,0,0,0,0,0,0,0,0,0,0,0,0,0,0,0,0,0,0,0],"split_type":[0,0,0,0,0,0,0,0,0,0,0,0,0,0,0,0,0,0,0,0,0,0,0,0,0,0,0,0,0,0,0,0,0,0,0,0,0,0,0,0,0,0,0,0,0,0,0,0,0,0,0,0,0,0,0,0,0,0,0,0,0,0,0,0,0,0,0,0,0,0,0,0,0,0,0,0,0,0,0,0,0,0,0,0,0,0,0,0,0,0,0,0,0,0,0,0,0,0,0,0,0,0,0,0,0,0,0,0,0,0,0,0,0,0,0,0,0,0,0,0,0,0,0,0,0,0,0],"sum_hessian":[2.13192E6,6.912E5,1.44072E6,4.8384E5,2.0736E5,6.5952E5,7.812E5,2.8728E5,1.9656E5,1.63218E5,4.4142E4,6.264E4,5.9688E5,5.04E4,7.308E5,2.36482E5,5.0798E4,3.744E4,1.5912E5,5.7995E4,1.05223E5,6.912E3,3.723E4,5.5249E4,7.391E3,1.2528E5,4.716E5,2.448E4,2.592E4,2.016E5,5.292E5,1.13476E5,1.23006E5,4.238E4,8.418E3,2.9822E4,7.618E3,1.404E5,1.872E4,3.1246E4,2.6749E4,2.6632E4,7.8591E4,5.494E3,1.418E3,3.0696E4,6.534E3,3.4897E4,2.0352E4,6.23E3,1.161E3,6.048E4,6.48E4,1.8792E5,2.8368E5,1.3056E4,1.1424E4,2.2464E4,3.456E3,1.728E4,1.8432E5,2.7216E5,2.5704E5,1.0537E4,1.02939E5,2.8759E4,9.4247E4,2.3367E4,1.9013E4,1.219E3,7.199E3,7.662E3,2.216E4,4.217E3,3.401E3,6.0718E4,7.9682E4,2.88E3,1.584E4,6.971E3,2.4275E4,2.3283E4,3.466E3,1.7E4,9.632E3,5.04E4,2.8191E4,3.844E3,1.65E3,2.29E2,1.189E3,1.4682E4,1.6014E4,2.421E3,4.113E3,3.0961E4,3.936E3,9.908E3,1.0444E4,3.846E3,2.384E3,5.77E2,5.84E2,4.032E4,2.016E4,2.16E4,4.32E4,9.4957E4,9.2963E4,1.7136E5,1.1232E5,9.28E3,3.776E3,3.264E3,8.16E3,1.1232E4,1.1232E4,2.592E3,8.64E2,8.64E3,8.64E3,1.728E5,1.152E4,1.3608E5,1.3608E5,1.1016E5,1.4688E5],"tree_param":{"num_deleted":"0","num_feature":"9","num_nodes":"127","size_leaf_vector":"1"}},{"base_weights":[8.3393036E-7,-1.1629613E-1,1.7892728E-2,-7.743328E-2,-2.0629235E-1,5.1294003E-2,-3.5549313E-2,-1.5736258E-1,4.24368E-3,-2.3193536E-2,-2.4707611E-1,1.05598725E-1,-3.010806E-3,-1.19666174E-1,5.0094025E-4,-2.0996475E-1,7.462071E-2,2.519669E-1,-1.2805295E-1,1.352941E-2,-8.3743864E-1,-4.4632858E-1,-2.0046976E-1,1.7668965E-1,3.221417E-2,-2.4282228E-2,2.4373277E-1,-1.5209502E-1,7.490554E-2,1.3562867E-1,-2.3588946E-2,-7.8988224E-2,-5.288204E-1,3.7894833E-1,-9.484245E-2,-1.3658178E-1,4.4735757E-1,-2.6929855E-1,6.632115E-2,-1.1354453E-1,6.522369E-2,-4.8577127E-1,-1.6567518E0,-2.4005881E-1,-8.574204E-1,1.3157514E-1,-2.6750097E-1,3.6822218E-1,1.1284408E-1,-1.926254E-1,1.3441445E-1,1.726805E-1,-6.973547E-2,-2.6332736E-1,4.127556E-1,-2.0999129E-1,-1.9432772E-2,-1.10729E-2,2.8488737E-1,2.934379E-2,2.153398E-1,-6.37732E-2,8.429538E-2,-7.729913E-2,3.3844886E-3,-3.1957814E-1,-1.14488766E-1,5.6916997E-2,2.7841035E-1,3.053901E-2,-7.608389E-2,3.572522E-2,-1.0657193E-1,1.9325975E-1,7.0271485E-2,-3.414212E-2,-1.2483459E-1,6.661807E-2,-3.875682E-2,-4.0952917E-2,5.9106193E-2,1.4745109E-1,1.3830589E-2,-3.645609E-2,-2.6005244E-1,-5.119495E-1,-7.1127E-2,-1.3938867E-1,-4.967141E-2,-3.2834065E-1,-1.7994775E-1,1.6837442E-1,-8.959975E-2,-1.8364562E-1,-5.828054E-2,2.7249722E-2,1.9368054E-1,1.0528714E-2,1.1018627E-1,4.966401E-2,-1.0895505E-1,2.5621103E-2,1.4894848E-1,9.936662E-2,-7.304638E-2,-4.818261E-2,6.3414276E-3,-5.542625E-3,-1.1548648E-1,-3.4655344E-2,1.7816259E-1,-9.9730045E-2,-4.696461E-2,-1.893717E-2,9.464976E-2,-8.6032026E-2,1.9634357E-2,1.9924177E-1,4.0752023E-2,3.862639E-2,-2.9541064E-2,9.002761E-2,-1.1676348E-2,-8.504284E-3,-4.356569E-2,4.4082325E-2,-4.1311312E-2],"categories":[],"categories_nodes":[],"categories_segments":[],"categories_sizes":[],"default_left":[0,0,0,0,0,0,0,0,0,0,0,0,0,0,0,0,0,0,0,0,0,0,0,0,0,0,0,0,0,0,0,0,0,0,0,0,0,0,0,0,0,0,0,0,0,0,0,0,0,0,0,0,0,0,0,0,0,0,0,0,0,0,0,0,0,0,0,0,0,0,0,0,0,0,0,0,0,0,0,0,0,0,0,0,0,0,0,0,0,0,0,0,0,0,0,0,0,0,0,0,0,0,0,0,0,0,0,0,0,0,0,0,0,0,0,0,0,0,0,0,0,0,0,0,0,0,0],"id":12,"left_children":[1,3,5,7,9,11,13,15,17,19,21,23,25,27,29,31,33,35,37,39,41,43,45,47,49,51,53,55,57,59,61,63,65,67,69,71,73,75,77,79,81,83,85,87,89,91,93,95,97,99,101,103,105,107,109,111,113,115,117,119,121,123,125,-1,-1,-1,-1,-1,-1,-1,-1,-1,-1,-1,-1,-1,-1,-1,-1,-1,-1,-1,-1,-1,-1,-1,-1,-1,-1,-1,-1,-1,-1,-1,-1,-1,-1,-1,-1,-1,-1,-1,-1,-1,-1,-1,-1,-1,-1,-1,-1,-1,-1,-1,-1,-1,-1,-1,-1,-1,-1,-1,-1,-1,-1,-1,-1],"loss_changes":[4.4360454E3,9.941753E2,3.2981436E3,1.296074E3,6.401721E2,3.3530955E3,2.1549722E3,1.2244226E3,3.2180735E3,4.670126E2,6.510005E2,2.965912E3,2.9838958E3,1.3452031E3,1.6193049E3,3.4158057E3,9.565478E2,2.595269E3,1.757352E3,9.818105E1,1.9339188E2,1.1267302E3,1.2647656E3,3.5311719E3,6.4281924E3,4.6857373E3,3.8671924E3,1.4035342E3,5.498711E2,6.3764526E2,1.8302832E3,9.351308E2,1.8800073E3,6.89102E2,3.7198685E2,6.39521E2,9.5406006E2,8.462373E2,8.202844E2,3.0852203E1,8.6575775E1,6.5549515E1,1.3861267E1,1.4797949E2,2.704607E2,1.764684E3,1.1931873E3,5.554633E3,4.2844355E3,5.3405337E3,3.4129268E3,6.475158E3,3.5117644E3,3.3594952E2,3.2379995E3,8.324087E2,8.1248956E2,4.559208E2,5.000558E2,4.0987323E2,9.2682043E2,8.8752905E2,1.5934806E3,0E0,0E0,0E0,0E0,0E0,0E0,0E0,0E0,0E0,0E0,0E0,0E0,0E0,0E0,0E0,0E0,0E0,0E0,0E0,0E0,0E0,0E0,0E0,0E0,0E0,0E0,0E0,0E0,0E0,0E0,0E0,0E0,0E0,0E0,0E0,0E0,0E0,0E0,0E0,0E0,0E0,0E0,0E0,0E0,0E0,0E0,0E0,0E0,0E0,0E0,0E0,0E0,0E0,0E0,0E0,0E0,0E0,0E0,0E0,0E0,0E0,0E0,0E0,0E0],"parents":[2147483647,0,0,1,1,2,2,3,3,4,4,5,5,6,6,7,7,8,8,9,9,10,10,11,11,12,12,13,13,14,14,15,15,16,16,17,17,18,18,19,19,20,20,21,21,22,22,23,23,24,24,25,25,26,26,27,27,28,28,29,29,30,30,31,31,32,32,33,33,34,34,35,35,36,36,37,37,38,38,39,39,40,40,41,41,42,42,43,43,44,44,45,45,46,46,47,47,48,48,49,49,50,50,51,51,52,52,53,53,54,54,55,55,56,56,57,57,58,58,59,59,60,60,61,61,62,62],"right_children":[2,4,6,8,10,12,14,16,18,20,22,24,26,28,30,32,34,36,38,40,42,44,46,48,50,52,54,56,58,60,62,64,66,68,70,72,74,76,78,80,82,84,86,88,90,92,94,96,98,100,102,104,106,108,110,112,114,116,118,120,122,124,126,-1,-1,-1,-1,-1,-1,-1,-1,-1,-1,-1,-1,-1,-1,-1,-1,-1,-1,-1,-1,-1,-1,-1,-1,-1,-1,-1,-1,-1,-1,-1,-1,-1,-1,-1,-1,-1,-1,-1,-1,-1,-1,-1,-1,-1,-1,-1,-1,-1,-1,-1,-1,-1,-1,-1,-1,-1,-1,-1,-1,-1,-1,-1,-1],"split_conditions":[5E0,-1.625E-1,2.1E1,2.752E1,2.654E1,1.2E1,2.4E1,1.354095E2,1E1,1.229095E2,1.039095E2,-3.1625E0,3.3375E0,2.3375E0,1.014095E2,1.264095E2,-8.1625E0,7.806E1,1.204095E2,1.029095E2,1E1,1.004095E2,1.089095E2,9E0,1E1,8E0,9E0,8.662E1,2.875E1,2.7E1,1.304095E2,8.188E1,-9.1625E0,4E0,9E0,4E0,4E0,1.079095E2,6E-2,1.8E0,8E1,1.254095E2,9.338E1,6E-2,1E1,1E1,1.179095E2,7E0,1.304095E2,-6.625E-1,2.93E1,-6.625E-1,1.179095E2,1.074095E2,1.044095E2,-7.1625E0,2.766E1,1.029095E2,1E1,-2.1625E0,3E1,-1.625E-1,8.662E1,-7.729913E-2,3.3844886E-3,-3.1957814E-1,-1.14488766E-1,5.6916997E-2,2.7841035E-1,3.053901E-2,-7.608389E-2,3.572522E-2,-1.0657193E-1,1.9325975E-1,7.0271485E-2,-3.414212E-2,-1.2483459E-1,6.661807E-2,-3.875682E-2,-4.0952917E-2,5.9106193E-2,1.4745109E-1,1.3830589E-2,-3.645609E-2,-2.6005244E-1,-5.119495E-1,-7.1127E-2,-1.3938867E-1,-4.967141E-2,-3.2834065E-1,-1.7994775E-1,1.6837442E-1,-8.959975E-2,-1.8364562E-1,-5.828054E-2,2.7249722E-2,1.9368054E-1,1.0528714E-2,1.1018627E-1,4.966401E-2,-1.0895505E-1,2.5621103E-2,1.4894848E-1,9.936662E-2,-7.304638E-2,-4.818261E-2,6.3414276E-3,-5.542625E-3,-1.1548648E-1,-3.4655344E-2,1.7816259E-1,-9.9730045E-2,-4.696461E-2,-1.893717E-2,9.464976E-2,-8.6032026E-2,1.9634357E-2,1.9924177E-1,4.0752023E-2,3.862639E-2,-2.9541064E-2,9.002761E-2,-1.1676348E-2,-8.504284E-3,-4.356569E-2,4.4082325E-2,-4.1311312E-2],"split_indices":[2,7,2,4,4,3,2,8,1,8,8,7,7,7,8,8,7,5,8,8,1,8,8,2,2,2,2,5,4,2,8,5,7,2,3,2,2,8,6,6,5,8,5,6,1,1,8,2,8,7,4,7,8,8,8,7,4,8,3,7,2,7,5,0,0,0,0,0,0,0,0,0,0,0,0,0,0,0,0,0,0,0,0,0,0,0,0,0,0,0,0,0,0,0,0,0,0,0,0,0,0,0,0,0,0,0,0,0,0,0,0,0,0,0,0,0,0,0,0,0,0,0,0,0,0,0,0],"split_type":[0,0,0,0,0,0,0,0,0,0,0,0,0,0,0,0,0,0,0,0,0,0,0,0,0,0,0,0,0,0,0,0,0,0,0,0,0,0,0,0,0,0,0,0,0,0,0,0,0,0,0,0,0,0,0,0,0,0,0,0,0,0,0,0,0,0,0,0,0,0,0,0,0,0,0,0,0,0,0,0,0,0,0,0,0,0,0,0,0,0,0,0,0,0,0,0,0,0,0,0,0,0,0,0,0,0,0,0,0,0,0,0,0,0,0,0,0,0,0,0,0,0,0,0,0,0,0],"sum_hessian":[2.13192E6,2.84256E5,1.847664E6,1.98528E5,8.5728E4,1.137024E6,7.1064E5,1.00337E5,9.8191E4,1.5617E4,7.0111E4,5.68512E5,5.68512E5,2.13192E5,4.97448E5,8.1791E4,1.8546E4,3.4183E4,6.4008E4,1.4944E4,6.73E2,1.3289E4,5.6822E4,2.88768E5,2.79744E5,5.23392E5,4.512E4,1.82736E5,3.0456E4,7.5264E4,4.22184E5,5.7977E4,2.3814E4,6.633E3,1.1913E4,1.1438E4,2.2745E4,3.707E4,2.6938E4,4.321E3,1.0623E4,4.72E2,2.01E2,8.85E3,4.439E3,9.544E3,4.7278E4,7.2192E4,2.16576E5,8.742E4,1.92324E5,9.8136E4,4.25256E5,1.128E4,3.384E4,1.27216E5,5.552E4,2.1609E4,8.847E3,3.2256E4,4.3008E4,3.07608E5,1.14576E5,1.9459E4,3.8518E4,5.126E3,1.8688E4,4.934E3,1.699E3,5.322E3,6.591E3,5.273E3,6.165E3,1.1823E4,1.0922E4,1.8004E4,1.9066E4,1.4994E4,1.1944E4,4.024E3,2.97E2,4.55E2,1.0168E4,2.42E2,2.3E2,1.94E2,7E0,2.203E3,6.647E3,2.31E3,2.129E3,4.775E3,4.769E3,8.284E3,3.8994E4,3.6096E4,3.6096E4,1.65888E5,5.0688E4,2.82E4,5.922E4,1.69396E5,2.2928E4,7.1064E4,2.7072E4,2.12628E5,2.12628E5,3.744E3,7.536E3,8.64E3,2.52E4,3.8653E4,8.8563E4,4.9114E4,6.406E3,4.694E3,1.6915E4,2.495E3,6.352E3,1.8144E4,1.4112E4,3.2256E4,1.0752E4,2.14368E5,9.324E4,8.936E4,2.5216E4],"tree_param":{"num_deleted":"0","num_feature":"9","num_nodes":"127","size_leaf_vector":"1"}},{"base_weights":[6.987535E-8,5.4271534E-2,-2.8690696E-2,1.5832217E-1,1.9587765E-2,-9.17108E-2,1.4714666E-2,7.224166E-2,3.2265395E-1,-8.2701266E-2,7.76053E-2,-1.8917622E-1,-4.297772E-2,2.034519E-3,2.7654582E-1,-7.375042E-2,1.0874007E-1,2.6912886E-1,1.071764E0,-2.0202184E-1,4.670316E-3,1.0207697E-1,-2.0766185E-1,-5.3104836E-2,-5.066696E-1,1.3164054E-1,-1.0118406E-1,6.6061385E-2,-4.805752E-2,-2.906574E-1,4.933629E-1,-1.767878E-1,2.353398E-1,5.2187955E-1,7.117647E-2,5.868288E-2,4.0653446E-1,1.1587275E0,4.619797E-1,-3.297913E-1,-5.621572E-3,1.0010008E-1,-1.2089002E-1,1.7657213E-1,-3.211858E-2,-5.0684834E-1,-1.0802801E-1,2.6860467E-1,-9.973131E-2,-8.073916E-1,-1.9964744E-1,-7.376677E-2,4.0070733E-1,-1.299316E-1,2.1945329E-1,-7.3894635E-2,3.0007622E-1,-1.318921E-1,2.0605858E-2,1.3245445E-1,-9.746791E-1,3.370918E-1,9.276742E-1,-8.729504E-2,1.548417E-2,3.398115E-2,1.437904E-1,2.3670387E-2,2.0970793E-1,-3.629906E-2,3.4164824E-2,-2.2164643E-1,4.6737857E-2,1.448182E-1,2.0926874E-2,2.7175084E-1,4.232977E-1,3.1255722E-1,3.358699E-2,-5.7234645E-2,-1.7990777E-1,-7.075273E-2,4.3840054E-3,1.9974355E-2,1.3694304E-1,-1.13847665E-1,-1.1241488E-2,2.525362E-2,1.1930642E-1,-1.9853432E-2,5.6929056E-2,-2.3418783E-1,-1.1113178E-1,-7.711712E-2,-8.287793E-3,1.615629E-2,2.4160726E-1,-1.1828565E-1,-1.4941021E-2,-1.0890737E-1,-2.6925552E-1,-1.0513058E-1,3.4170772E-3,5.185547E-2,-1.05979E-1,3.30425E-2,2.2639991E-1,-5.0356727E-2,6.5296E-3,2.3035729E-1,-1.2695125E-2,1.3235284E-2,-6.024359E-2,1.3816012E-1,-4.018707E-2,-1.13054916E-1,-1.1687041E-2,4.5212954E-2,-1.1882606E-2,-4.4976104E-2,1.0822372E-1,-3.7450394E-1,-1.4674942E-2,6.741576E-2,2.209572E-1,1.9074088E-1,3.9955583E-1],"categories":[],"categories_nodes":[],"categories_segments":[],"categories_sizes":[],"default_left":[0,0,0,0,0,0,0,0,0,0,0,0,0,0,0,0,0,0,0,0,0,0,0,0,0,0,0,0,0,0,0,0,0,0,0,0,0,0,0,0,0,0,0,0,0,0,0,0,0,0,0,0,0,0,0,0,0,0,0,0,0,0,0,0,0,0,0,0,0,0,0,0,0,0,0,0,0,0,0,0,0,0,0,0,0,0,0,0,0,0,0,0,0,0,0,0,0,0,0,0,0,0,0,0,0,0,0,0,0,0,0,0,0,0,0,0,0,0,0,0,0,0,0,0,0,0,0],"id":13,"left_children":[1,3,5,7,9,11,13,15,17,19,21,23,25,27,29,31,33,35,37,39,41,43,45,47,49,51,53,55,57,59,61,63,65,67,69,71,73,75,77,79,81,83,85,87,89,91,93,95,97,99,101,103,105,107,109,111,113,115,117,119,121,123,125,-1,-1,-1,-1,-1,-1,-1,-1,-1,-1,-1,-1,-1,-1,-1,-1,-1,-1,-1,-1,-1,-1,-1,-1,-1,-1,-1,-1,-1,-1,-1,-1,-1,-1,-1,-1,-1,-1,-1,-1,-1,-1,-1,-1,-1,-1,-1,-1,-1,-1,-1,-1,-1,-1,-1,-1,-1,-1,-1,-1,-1,-1,-1,-1],"loss_changes":[3.3195942E3,2.6607466E3,3.8149165E3,2.6073384E3,3.2815852E3,2.7016772E3,2.7418389E3,6.44546E2,2.540245E3,2.0863599E3,2.4631567E3,8.191072E3,3.8541707E3,2.526327E3,4.6914365E3,7.7053656E2,1.5017213E3,1.7100088E3,2.2351172E2,2.1228467E3,1.3843268E3,3.2486045E3,8.309336E2,1.9908657E3,5.2515645E3,5.2395186E3,2.6215042E3,1.1324148E4,2.5439712E3,3.0534858E3,1.8727725E3,4.7328168E2,1.8008618E2,6.3282324E2,7.2801605E2,1.8093221E3,9.180078E2,2.345747E2,1.07254776E2,1.9228335E3,1.5533652E2,7.8408655E2,1.0762218E3,4.268968E3,8.766476E2,2.5978674E2,2.5058948E2,1.936572E3,1.7047694E3,1.1504941E3,8.9569543E2,3.7057515E3,4.2209146E3,1.5015361E3,3.3593862E3,3.2406057E3,9.01177E3,4.5299663E3,1.9033444E3,4.20293E2,1.0214502E3,9.108701E2,8.6055566E2,0E0,0E0,0E0,0E0,0E0,0E0,0E0,0E0,0E0,0E0,